3860 64
1 -0.286712 0.0677872 0.0705989 -0.217066 -0.116541 0.020889 0.0239992 -0.111479 0.0951487 0.227944 -0.169916 -0.00208631 0.177358 -0.50458 0.038196 -0.107577 -0.0928113 -0.0217246 -0.0239419 0.0672436 0.167247 0.1142 0.244917 -0.200528 0.124831 0.0497256 -0.00335972 -0.150671 0.112925 0.378432 -0.267796 -0.0231588 -0.122994 0.337918 0.144862 -0.0447142 -0.0368122 0.266212 -0.29362 -0.0392089 -0.0217602 -0.278525 0.10551 -0.241961 -0.0247803 0.105017 -0.122687 0.212626 -0.0246427 -0.218375 -0.086783 0.0636086 0.156967 0.0236034 0.0644713 -0.063018 -0.0469545 -0.0952667 -0.0742795 -0.00678637 0.0523495 0.129685 0.0827668 -0.206854
3362 -0.277763 0.0942705 0.0679658 -0.213361 -0.127384 0.0255968 0.0380244 -0.118151 0.107461 0.215923 -0.140744 0.0171035 0.186571 -0.510705 0.0405995 -0.125657 -0.11504 -0.0440937 -0.021166 0.0925726 0.186865 0.126235 0.243909 -0.199926 0.117855 0.0484992 0.0136847 -0.130258 0.101262 0.380464 -0.245043 -0.000187732 -0.110384 0.327117 0.158285 -0.0245057 -0.0305088 0.257655 -0.251452 -0.0326693 -0.0146218 -0.289489 0.0942118 -0.203618 -0.0409972 0.097169 -0.130299 0.1985 -0.0251885 -0.260561 -0.107558 0.0713992 0.159696 0.0241566 0.055304 -0.0556908 -0.0293207 -0.100447 -0.0834708 -0.00647214 0.0245607 0.122178 0.0788999 -0.197423
138 -0.293693 0.0617838 0.0586277 -0.225671 -0.120069 0.0177784 -0.000951317 -0.119646 0.0841601 0.245387 -0.176028 -0.0232464 0.162264 -0.491032 0.0133981 -0.0996472 -0.101546 -0.0266191 -0.00695652 0.0632777 0.169332 0.129895 0.256407 -0.212345 0.124212 0.0543261 -0.0172906 -0.151279 0.105863 0.368406 -0.271466 -0.0374078 -0.137677 0.349323 0.138022 -0.0588132 -0.0459917 0.239658 -0.303334 -0.0538174 -0.0229974 -0.283218 0.09603 -0.261051 -0.0313167 0.108296 -0.126556 0.213856 -0.0150524 -0.218663 -0.0653944 0.0873826 0.13941 -0.00187473 0.0630903 -0.0481436 -0.0528546 -0.0799185 -0.0721955 0.00259983 0.0607537 0.136859 0.0715969 -0.211834
2159 -0.282211 0.0893087 0.0643031 -0.221614 -0.116888 0.0247173 0.0321814 -0.110153 0.103033 0.216548 -0.156583 0.0108316 0.182393 -0.518825 0.0246117 -0.113402 -0.0962598 -0.0396143 -0.0185014 0.0804474 0.177719 0.13097 0.259867 -0.221332 0.124227 0.0484926 -0.00694326 -0.137869 0.100056 0.378596 -0.254037 -0.00753099 -0.123323 0.337702 0.155258 -0.0404353 -0.0371022 0.247126 -0.263638 -0.0481215 -0.0249499 -0.286515 0.086716 -0.236549 -0.0406708 0.104547 -0.121047 0.199993 -0.0215381 -0.241675 -0.0907271 0.0802384 0.156791 0.0068486 0.0653168 -0.0675407 -0.0306255 -0.0803454 -0.0725781 0.00228097 0.0308941 0.10971 0.0817985 -0.198857
975 -0.283649 0.0962569 0.0695891 -0.230455 -0.123704 0.0264096 0.0209513 -0.107427 0.0981207 0.205482 -0.157128 0.0101718 0.189713 -0.508894 0.0206166 -0.110964 -0.101299 -0.0342357 -0.0191534 0.0798291 0.18057 0.129351 0.256013 -0.215491 0.119855 0.0474258 -0.0027426 -0.143123 0.0990935 0.380792 -0.240295 -0.0163998 -0.115202 0.338203 0.148119 -0.0403087 -0.0396067 0.255737 -0.268197 -0.0341876 -0.0136482 -0.285872 0.0982055 -0.225594 -0.0477213 0.100906 -0.124146 0.214843 -0.023692 -0.23837 -0.0969987 0.0734193 0.163248 0.0127688 0.0550076 -0.0562616 -0.0406188 -0.0835534 -0.0839798 0.000387864 0.0442703 0.109423 0.0835006 -0.206198
1840 -0.270114 0.114279 0.0658506 -0.219824 -0.125945 0.021745 0.0395327 -0.117373 0.113179 0.210611 -0.129059 0.0160851 0.213536 -0.526168 0.0274976 -0.128019 -0.122874 -0.0304191 -0.023379 0.0955879 0.187686 0.128516 0.252762 -0.212023 0.111863 0.0430507 0.0227634 -0.142885 0.104255 0.377831 -0.233657 0.00847278 -0.097561 0.314407 0.165285 -0.0335731 -0.0103273 0.28106 -0.241764 -0.0430959 -5.93766e-05 -0.317871 0.105775 -0.187699 -0.0567194 0.0860119 -0.136074 0.20655 -0.0192381 -0.28035 -0.112461 0.0673159 0.153081 0.0150078 0.0720664 -0.0669865 -0.0277797 -0.0982404 -0.0804597 -0.014588 -0.00843478 0.101328 0.0822369 -0.176102
1553 -0.288808 0.0917712 0.0755562 -0.224857 -0.138573 0.0192869 0.0239891 -0.10615 0.109746 0.20457 -0.157308 -0.00553845 0.183417 -0.507862 0.0337669 -0.122887 -0.111168 -0.0351466 -0.0207689 0.0758604 0.183435 0.125695 0.255684 -0.195849 0.12213 0.0431126 0.00721391 -0.137437 0.107724 0.382939 -0.250042 -0.00267047 -0.120952 0.320063 0.167549 -0.0438074 -0.0336775 0.25228 -0.266484 -0.0465229 -0.0191194 -0.28626 0.0875997 -0.215965 -0.0398829 0.0958491 -0.126123 0.213735 -0.0255502 -0.245696 -0.10629 0.0652471 0.152223 0.0236994 0.0577764 -0.0574729 -0.0193359 -0.082729 -0.0842199 -0.0186689 0.0273543 0.117964 0.0664969 -0.198884
1587 -0.28549 0.0770358 0.0704131 -0.227841 -0.128338 0.0251027 0.0157035 -0.111281 0.0897526 0.215864 -0.157877 0.00373039 0.184586 -0.498499 0.0325229 -0.103732 -0.107405 -0.0355859 -0.0150463 0.0766891 0.175831 0.12481 0.264154 -0.216264 0.120694 0.0485579 0.0028892 -0.13573 0.0991158 0.363222 -0.270496 -0.0277152 -0.135291 0.342673 0.149034 -0.03531 -0.0539402 0.244214 -0.288645 -0.0558051 -0.0204385 -0.274961 0.0873565 -0.236786 -0.0316882 0.100861 -0.136115 0.209942 -0.0150486 -0.234063 -0.090798 0.0847214 0.15473 0.0137731 0.0653977 -0.0607456 -0.0541433 -0.0860115 -0.0608877 0.00175517 0.0482245 0.134779 0.0718391 -0.199271
244 -0.29525 0.0702013 0.064973 -0.219094 -0.116873 0.0280358 0.0133298 -0.120665 0.0914191 0.240348 -0.156954 -0.0204094 0.176924 -0.488212 0.0345488 -0.0946589 -0.0990396 -0.0168961 -0.0103472 0.0610149 0.16392 0.116516 0.253678 -0.207741 0.13029 0.0490601 -0.0163642 -0.146254 0.105134 0.370513 -0.25741 -0.044816 -0.129736 0.340806 0.14678 -0.048875 -0.0391702 0.241841 -0.307219 -0.0426349 -0.0321502 -0.281807 0.0943863 -0.249328 -0.0231155 0.10216 -0.135503 0.212196 -0.0170099 -0.220099 -0.0788176 0.0851449 0.14286 0.00789805 0.0641285 -0.0424354 -0.0557101 -0.0697554 -0.0819145 -0.00463142 0.0721812 0.124619 0.0587874 -0.216635
3584 -0.286669 0.0896267 0.066062 -0.219038 -0.121311 0.0302211 0.0313482 -0.0987476 0.106556 0.205914 -0.156021 -0.00444366 0.173622 -0.50051 0.0407687 -0.113109 -0.0986662 -0.017042 -0.0181262 0.0696703 0.172082 0.1268 0.261481 -0.213831 0.123753 0.0533116 -0.00828648 -0.139827 0.104837 0.377051 -0.243934 -0.0267946 -0.117822 0.328118 0.159383 -0.0332864 -0.0359386 0.254731 -0.260138 -0.0455593 -0.0189464 -0.287797 0.0853082 -0.208864 -0.0300486 0.108344 -0.139138 0.207721 -0.0155773 -0.246129 -0.101385 0.0762156 0.138876 0.0231293 0.0615511 -0.0525895 -0.0423607 -0.0792458 -0.0850495 -0.0093521 0.0388962 0.123651 0.0704079 -0.199818
207 -0.310755 0.0544108 0.0563558 -0.227757 -0.110545 0.0256619 0.00177248 -0.137868 0.086892 0.243032 -0.173293 -0.0331693 0.170078 -0.48705 0.0159749 -0.0985686 -0.100388 -0.0181579 -0.00433438 0.0447936 0.154396 0.109077 0.264925 -0.22316 0.127508 0.0453575 -0.0252721 -0.152455 0.124562 0.37536 -0.28577 -0.0560513 -0.153918 0.351303 0.145651 -0.0655259 -0.059494 0.24 -0.320505 -0.0471366 -0.0489948 -0.269882 0.0933621 -0.265131 -0.0209672 0.119423 -0.138557 0.221097 -0.00650332 -0.201608 -0.0605436 0.0783018 0.141195 -0.000419086 0.0604411 -0.0514165 -0.0623163 -0.0794543 -0.0693215 0.013239 0.0924963 0.137734 0.0639638 -0.225263
3406 -0.296078 0.055554 0.0635621 -0.221442 -0.128616 0.0145829 0.00293264 -0.138196 0.0974123 0.234543 -0.155197 -0.0103014 0.158723 -0.488406 0.0240549 -0.112082 -0.0956926 -0.0271402 -0.00603069 0.0591171 0.167064 0.126947 0.256467 -0.210673 0.135606 0.0523303 -0.0227026 -0.145586 0.10647 0.369684 -0.260932 -0.0380059 -0.131066 0.338971 0.14471 -0.052673 -0.03627 0.240816 -0.306241 -0.0447087 -0.0207747 -0.276673 0.0847289 -0.249559 -0.0213769 0.104383 -0.137116 0.234457 -0.00680923 -0.215397 -0.0733337 0.0867392 0.138385 0.0111944 0.0611408 -0.0486821 -0.0602677 -0.0736054 -0.0661537 0.00186084 0.0666522 0.127219 0.0716429 -0.205688
3226 -0.276876 0.0869444 0.0634474 -0.231237 -0.137592 0.0280317 0.0362305 -0.106985 0.11124 0.210655 -0.143018 -0.000855603 0.188398 -0.513264 0.0401247 -0.130792 -0.120585 -0.0396011 -0.0173472 0.0916066 0.174023 0.131452 0.259813 -0.210431 0.117212 0.0504546 0.0142107 -0.149303 0.113688 0.382104 -0.231892 0.00886348 -0.123551 0.327488 0.168325 -0.0367317 -0.0356372 0.256915 -0.250617 -0.0479306 -0.00690878 -0.300806 0.0904157 -0.194028 -0.0385898 0.0988945 -0.122046 0.205209 -0.0257075 -0.259727 -0.101446 0.0720645 0.157702 0.0140732 0.0639975 -0.0628753 -0.0366502 -0.0914626 -0.0935501 -0.00470139 0.0154202 0.116848 0.0728484 -0.202322
2138 -0.288331 0.0984572 0.0598005 -0.211673 -0.12067 0.018576 0.00988447 -0.122497 0.0990261 0.226397 -0.154928 -0.0122133 0.188226 -0.51832 0.00192903 -0.116117 -0.105887 -0.0114306 -0.031976 0.0717143 0.171896 0.12402 0.258735 -0.212038 0.115205 0.0470548 -0.000682953 -0.151226 0.114354 0.375077 -0.25834 -0.0149155 -0.125164 0.342104 0.146792 -0.0509308 -0.0417186 0.254565 -0.26679 -0.0517015 -0.02197 -0.279879 0.112096 -0.262115 -0.0310571 0.115468 -0.132686 0.215609 -0.0062626 -0.23158 -0.0827614 0.0854967 0.146669 0.0137505 0.0766053 -0.0567615 -0.0438793 -0.106361 -0.0566219 -0.0139737 0.0422673 0.117218 0.0713186 -0.192477
955 -0.272549 0.0935244 0.0662502 -0.219371 -0.134445 0.021362 0.0328076 -0.107498 0.107863 0.20631 -0.153066 0.00294948 0.196127 -0.50129 0.0306549 -0.126425 -0.108257 -0.0270604 -0.0325395 0.0786623 0.190923 0.129692 0.25015 -0.202098 0.13166 0.0484417 0.0171927 -0.131358 0.110925 0.36577 -0.243104 -0.00255957 -0.111746 0.334972 0.150251 -0.0431858 -0.0279786 0.258576 -0.260094 -0.0359543 -0.00627816 -0.292839 0.0968461 -0.217095 -0.0462807 0.113079 -0.129113 0.193663 -0.0239145 -0.249505 -0.100132 0.0666719 0.158479 0.0177125 0.0655518 -0.0654236 -0.0184369 -0.0939316 -0.073713 -0.00668253 0.0206261 0.112897 0.0621094 -0.203453
1904 -0.287028 0.0966715 0.0712843 -0.220192 -0.127912 0.0196682 0.0313736 -0.106514 0.1114 0.20359 -0.150036 0.00242015 0.184076 -0.507484 0.0241875 -0.118605 -0.111869 -0.0340909 -0.0275071 0.0808323 0.19351 0.130845 0.251087 -0.198334 0.122412 0.0561489 0.00856724 -0.131496 0.108808 0.381202 -0.240832 0.00107975 -0.113546 0.32369 0.163796 -0.0351809 -0.0325298 0.250908 -0.266764 -0.0356114 -0.0115347 -0.293796 0.0990301 -0.218619 -0.0375954 0.0965616 -0.134093 0.197796 -0.017569 -0.262716 -0.106526 0.0777386 0.150806 0.0212393 0.0683411 -0.0660995 -0.0261624 -0.101284 -0.0833566 -0.00838483 0.0287732 0.119471 0.0719944 -0.192003
3645 -0.289426 0.0763641 0.0691705 -0.214194 -0.125883 0.0380385 0.018406 -0.125558 0.10737 0.208205 -0.156364 0.00394465 0.172011 -0.504574 0.0204969 -0.098116 -0.106516 -0.0180579 -0.0201352 0.0765721 0.183585 0.142542 0.262116 -0.221409 0.116389 0.0352843 0.00408431 -0.13486 0.0986054 0.378016 -0.258449 -0.0242994 -0.125381 0.335708 0.14476 -0.0389534 -0.0488942 0.257415 -0.277945 -0.0394442 -0.0139481 -0.289861 0.110683 -0.222709 -0.036208 0.103957 -0.135165 0.206997 -0.0258864 -0.218752 -0.0836167 0.067506 0.151133 0.0186082 0.0623145 -0.0460145 -0.029001 -0.104138 -0.0607562 0.00831782 0.0415579 0.106581 0.0673283 -0.198329
3007 -0.270398 0.0969945 0.0784599 -0.225478 -0.124791 0.023432 0.0413155 -0.107459 0.108185 0.208042 -0.142347 0.00705494 0.190734 -0.52609 0.02819 -0.117338 -0.116349 -0.0294466 -0.0261793 0.0943555 0.180142 0.128277 0.248595 -0.206234 0.117262 0.0391525 0.0122605 -0.134254 0.095096 0.381014 -0.249375 -0.0039668 -0.112695 0.326641 0.158917 -0.0232382 -0.039339 0.25209 -0.267258 -0.0325117 -0.0203022 -0.298917 0.100555 -0.201927 -0.0440102 0.095706 -0.132256 0.202485 -0.0349132 -0.24742 -0.113139 0.0781619 0.156254 0.00747737 0.0758507 -0.065329 -0.032674 -0.0903228 -0.0784759 -0.00588626 0.0179594 0.113216 0.0735256 -0.189967
2368 -0.284945 0.094724 0.0769866 -0.208712 -0.12344 0.0189471 0.0372276 -0.111356 0.108654 0.209647 -0.150784 0.00731125 0.186643 -0.517206 0.0193951 -0.129805 -0.105827 -0.0360556 -0.0259675 0.078729 0.184626 0.11877 0.251456 -0.211531 0.125098 0.0592312 0.0032154 -0.138921 0.101129 0.371714 -0.240486 -0.00191563 -0.111078 0.323812 0.15499 -0.031773 -0.043272 0.248766 -0.25681 -0.0311117 -0.0140718 -0.287339 0.0919109 -0.217943 -0.0434822 0.107312 -0.1302 0.202565 -0.0220418 -0.247585 -0.0864348 0.0742344 0.160436 0.0237264 0.06704 -0.0616661 -0.0308222 -0.0920931 -0.0738126 -0.00218343 0.0337578 0.106571 0.0834729 -0.196845
2 -0.283415 0.0663434 0.0586146 -0.231241 -0.12621 0.0278183 0.021271 -0.132345 0.0990121 0.224733 -0.152321 -0.0235982 0.182636 -0.510934 0.0248274 -0.127989 -0.112621 -0.0266829 -0.0358711 0.0638549 0.188628 0.119797 0.25338 -0.21769 0.124679 0.0610527 -0.0118126 -0.151902 0.121296 0.387195 -0.288133 -0.0213042 -0.127767 0.347955 0.158965 -0.042935 -0.0484564 0.260982 -0.302302 -0.0459753 -0.0107889 -0.277858 0.0957932 -0.235496 -0.0218017 0.0981451 -0.115746 0.22161 -0.0118012 -0.23509 -0.0840352 0.0795981 0.141975 0.000584472 0.0613631 -0.0490689 -0.0475832 -0.0988983 -0.100846 -0.0222533 0.0609324 0.123706 0.0723693 -0.211338
993 -0.292149 0.0820938 0.0576543 -0.22142 -0.134572 0.0239442 0.0255339 -0.120558 0.107031 0.217572 -0.149455 -0.0102075 0.189813 -0.522247 0.0321742 -0.122037 -0.120028 -0.0289295 -0.0144011 0.0866236 0.165856 0.129765 0.251844 -0.207241 0.126565 0.0411008 0.00196066 -0.137086 0.113047 0.378427 -0.262679 -0.0255809 -0.121529 0.324326 0.169158 -0.0386768 -0.0247529 0.27244 -0.266541 -0.0486811 -0.025415 -0.285858 0.0876462 -0.219401 -0.0516967 0.0969938 -0.142056 0.2036 -0.0135794 -0.257387 -0.105124 0.0793534 0.135985 0.00909279 0.0700979 -0.0492672 -0.057531 -0.0807858 -0.0895406 -0.00878331 0.0384269 0.119928 0.0665686 -0.206182
3319 -0.288561 0.083894 0.0585768 -0.217365 -0.123406 0.014945 0.0206151 -0.121832 0.0894946 0.213979 -0.152479 -0.0167599 0.189778 -0.504246 0.0231688 -0.122017 -0.10419 -0.0359913 -0.0235121 0.0793034 0.17822 0.126902 0.264678 -0.218522 0.125415 0.0418092 -0.00222953 -0.136628 0.104251 0.372835 -0.264465 -0.0254266 -0.116534 0.333185 0.153653 -0.0434251 -0.0419664 0.249176 -0.276068 -0.038583 -0.0244729 -0.277392 0.0893138 -0.233403 -0.0434148 0.108768 -0.137378 0.218961 -0.0256143 -0.243943 -0.0876733 0.0821775 0.143414 0.00246116 0.0651536 -0.052355 -0.0491207 -0.0823875 -0.0804901 -0.0118628 0.0365077 0.115726 0.0730015 -0.196215
2084 -0.268808 0.0836526 0.0718333 -0.214805 -0.124954 0.0258312 0.039687 -0.110149 0.114771 0.204235 -0.145273 0.0030775 0.186581 -0.497415 0.0192977 -0.124616 -0.106549 -0.0321144 -0.0166849 0.0883639 0.190229 0.13299 0.254052 -0.204877 0.115695 0.0520382 0.0176269 -0.138441 0.10901 0.376582 -0.250099 -0.0070834 -0.113179 0.330623 0.151701 -0.0449526 -0.0239254 0.274027 -0.256001 -0.0320836 -0.015713 -0.296062 0.0918567 -0.215251 -0.0373208 0.0968596 -0.126709 0.208648 -0.0161723 -0.252231 -0.0990642 0.0715651 0.14441 0.00891084 0.0586813 -0.0627409 -0.0353306 -0.0914596 -0.0843688 -0.0134623 0.0258812 0.11273 0.0663551 -0.196599
2789 -0.287953 0.0603618 0.0586615 -0.21376 -0.124854 0.0222784 -0.00470898 -0.121535 0.091641 0.234379 -0.164262 -0.0210737 0.181208 -0.49658 0.0156185 -0.0961062 -0.108216 -0.0159569 -0.0110422 0.0573349 0.173517 0.12238 0.254884 -0.214096 0.121357 0.0404646 -0.00609238 -0.156282 0.11689 0.380326 -0.262335 -0.031611 -0.133696 0.328676 0.144381 -0.033154 -0.0442019 0.24509 -0.299125 -0.0334485 -0.0195106 -0.280418 0.0865578 -0.233225 -0.0259037 0.0990133 -0.127807 0.222251 -0.000134614 -0.222136 -0.0879542 0.0835022 0.133907 0.00160072 0.0601546 -0.0510863 -0.0492985 -0.0823706 -0.0720779 0.00151124 0.0502645 0.137308 0.0667173 -0.211338
806 -0.283622 0.110064 0.0753894 -0.208152 -0.132145 0.0236286 0.0462419 -0.116133 0.0994207 0.199093 -0.143305 0.00693041 0.186287 -0.509517 0.0251269 -0.12024 -0.111548 -0.0430178 -0.0222732 0.0915707 0.200777 0.121641 0.238196 -0.205462 0.124599 0.0507077 -0.00109908 -0.141928 0.115112 0.376574 -0.241705 0.00315184 -0.108093 0.313 0.161213 -0.0414868 -0.0307135 0.252519 -0.263666 -0.0318421 -0.00626978 -0.269155 0.0857269 -0.20832 -0.0365618 0.105713 -0.128886 0.208074 -0.0323038 -0.25678 -0.107795 0.0559718 0.160907 0.0210068 0.0664683 -0.0692364 -0.0159615 -0.0826151 -0.087013 -0.0140526 0.0152174 0.100988 0.0737751 -0.183218
3575 -0.279132 0.10371 0.0687919 -0.232715 -0.13268 0.034248 0.0387211 -0.107584 0.11022 0.207889 -0.143146 -0.00209463 0.192802 -0.513622 0.0289354 -0.127922 -0.113122 -0.0242737 -0.0290189 0.0783007 0.180519 0.125177 0.248959 -0.2165 0.134252 0.0476409 0.00903224 -0.137274 0.109378 0.386146 -0.25229 -0.00339435 -0.107369 0.325419 0.163644 -0.0374605 -0.033977 0.278074 -0.267538 -0.043216 -0.01803 -0.290715 0.0894257 -0.202136 -0.0443067 0.108605 -0.139385 0.207456 -0.0213907 -0.253526 -0.0986274 0.0676198 0.165098 0.0220538 0.0569163 -0.0598406 -0.0289432 -0.0865501 -0.0821339 -0.00968307 0.0298185 0.116145 0.0694303 -0.192493
3789 -0.286461 0.0730792 0.0514516 -0.218566 -0.122806 0.0214633 0.0313261 -0.124214 0.104717 0.209853 -0.152508 -0.00179759 0.182521 -0.521695 0.0284317 -0.111328 -0.115259 -0.0169732 -0.0101673 0.0675112 0.180147 0.120572 0.263161 -0.215842 0.111517 0.0458236 0.0145857 -0.136483 0.102512 0.393764 -0.259593 -0.0197208 -0.11766 0.336812 0.160627 -0.0416183 -0.04718 0.260178 -0.283474 -0.0472235 -0.0124254 -0.290358 0.0879854 -0.220432 -0.0447608 0.0970155 -0.131283 0.208953 -0.0137302 -0.251314 -0.0957713 0.0829799 0.14858 0.00704345 0.0591555 -0.0581386 -0.0495318 -0.0959704 -0.0835482 -0.012678 0.0445906 0.119979 0.0727654 -0.204043
2800 -0.287712 0.0753818 0.0672672 -0.215065 -0.129726 0.0187046 -0.00151772 -0.123769 0.083807 0.225905 -0.165907 -0.0220029 0.180298 -0.50159 0.0289216 -0.0959882 -0.108406 -0.0185943 -0.0136807 0.0637994 0.176754 0.129398 0.257683 -0.206504 0.136165 0.0545106 -0.0177669 -0.146294 0.113293 0.385047 -0.270265 -0.0310819 -0.138476 0.350524 0.152822 -0.0425857 -0.0414318 0.251065 -0.304686 -0.0405706 -0.0255231 -0.273453 0.0862899 -0.252168 -0.0299394 0.108774 -0.142835 0.219583 -0.0144302 -0.22161 -0.0810157 0.0881238 0.142495 0.00682974 0.0549891 -0.0469974 -0.059283 -0.0885983 -0.0825231 -0.00163603 0.0693654 0.139618 0.0605118 -0.217235
2803 -0.27796 0.112551 0.0709831 -0.231322 -0.133033 0.0272781 0.0276618 -0.110385 0.106897 0.195372 -0.13853 0.0179782 0.204622 -0.51849 0.0322117 -0.127481 -0.127591 -0.0267267 -0.0281189 0.0964957 0.183081 0.132166 0.265105 -0.209284 0.119621 0.0503903 0.00916194 -0.135781 0.114048 0.385291 -0.245255 -0.0005498 -0.116902 0.322968 0.158341 -0.0286646 -0.0407483 0.281144 -0.253067 -0.0441929 -0.00439408 -0.29886 0.0887539 -0.202108 -0.0618544 0.0897383 -0.143127 0.195865 -0.0188874 -0.265979 -0.116794 0.0771906 0.151899 0.018874 0.0526361 -0.0642034 -0.0367108 -0.0890152 -0.0821255 -0.0041803 0.014949 0.115736 0.0786525 -0.196568
1463 -0.27585 0.0958097 0.0719752 -0.218622 -0.140367 0.0412529 0.0416201 -0.102647 0.11415 0.209885 -0.151657 0.00311452 0.193974 -0.516916 0.032337 -0.114487 -0.123133 -0.0313617 -0.0141039 0.0843992 0.186494 0.123847 0.251241 -0.214214 0.120423 0.048981 0.00408275 -0.142157 0.103121 0.374086 -0.235472 -0.000793536 -0.109408 0.319348 0.141222 -0.026581 -0.0303971 0.27204 -0.24992 -0.0399226 -0.0082241 -0.293295 0.0906617 -0.207839 -0.0505826 0.10086 -0.141209 0.193856 -0.0186327 -0.264237 -0.109116 0.084029 0.147786 0.0203045 0.0585311 -0.071854 -0.03901 -0.083399 -0.0828903 -0.016576 0.013892 0.107278 0.0787719 -0.203146
824 -0.277933 0.0900835 0.0667795 -0.217471 -0.121095 0.0233734 0.0386319 -0.114431 0.105197 0.21584 -0.143824 -0.000857288 0.183789 -0.51561 0.0338277 -0.113495 -0.114769 -0.0390982 -0.0120819 0.0742475 0.180847 0.123429 0.251933 -0.205458 0.128504 0.0508509 0.0108411 -0.144801 0.108704 0.371213 -0.25967 -0.00532704 -0.127726 0.318347 0.147763 -0.0311695 -0.0356423 0.244384 -0.272508 -0.048451 -0.0079431 -0.288503 0.0884967 -0.210997 -0.044275 0.0934152 -0.124143 0.202815 -0.0185028 -0.242443 -0.091258 0.0749962 0.158411 0.00635136 0.0595133 -0.0481943 -0.0283835 -0.0891775 -0.069621 -0.0104863 0.0344138 0.109323 0.0629541 -0.196637
825 -0.281361 0.0894764 0.0642622 -0.207847 -0.123105 0.0196158 0.029932 -0.118367 0.0998467 0.212644 -0.151356 -0.0147464 0.191164 -0.507926 0.026621 -0.111675 -0.112972 -0.0353466 -0.0224949 0.0669734 0.175087 0.130894 0.258728 -0.213231 0.115084 0.0515342 0.00518509 -0.133989 0.0993016 0.375342 -0.242228 -0.0222163 -0.130461 0.325073 0.138886 -0.0371171 -0.0324775 0.255754 -0.271757 -0.034227 -0.019098 -0.288898 0.0869968 -0.222557 -0.0384251 0.0990308 -0.134692 0.203655 -0.00895838 -0.248163 -0.0937407 0.069008 0.151215 0.0108387 0.0599002 -0.0627192 -0.0391822 -0.0736963 -0.0711083 -0.00975363 0.0345561 0.114589 0.0712707 -0.199197
1310 -0.289398 0.0679354 0.061866 -0.21646 -0.128942 0.0285239 0.0116279 -0.114743 0.0911943 0.228345 -0.151006 -0.0121322 0.17296 -0.493286 0.0231056 -0.118291 -0.104701 -0.0162515 -0.0231306 0.0742013 0.171397 0.11498 0.250819 -0.212128 0.120929 0.0482573 -0.002138 -0.148033 0.1197 0.365226 -0.259404 -0.0294582 -0.134423 0.340536 0.150248 -0.0395591 -0.0410793 0.252017 -0.286832 -0.0411171 -0.0292379 -0.275293 0.0909146 -0.232965 -0.0388533 0.105251 -0.133144 0.214316 -0.00721431 -0.220325 -0.0839983 0.0716328 0.137025 -0.0042738 0.059908 -0.0525443 -0.0467002 -0.0803065 -0.0658903 -0.00501017 0.0359086 0.111931 0.0668395 -0.205373
3 -0.300492 0.109842 0.0507491 -0.22153 -0.151256 0.0101992 0.0518064 -0.105979 0.110461 0.17202 -0.165437 0.00689567 0.212217 -0.522492 0.0256364 -0.119158 -0.112786 -0.0322473 -0.00595664 0.0770547 0.194584 0.12748 0.256159 -0.213799 0.128675 0.0576811 0.0196687 -0.147045 0.109993 0.393966 -0.23586 0.0186536 -0.12756 0.319342 0.15784 -0.0428167 -0.0187097 0.276813 -0.254292 -0.0296162 -0.0284077 -0.282558 0.0619817 -0.194374 -0.0364707 0.119193 -0.14021 0.205473 -0.0113006 -0.287194 -0.102884 0.0859163 0.155493 0.02103 0.0460035 -0.0749358 -0.0272259 -0.084505 -0.0826294 -0.0194079 -0.0016237 0.112658 0.0782211 -0.206256
3474 -0.299534 0.0927571 0.0549455 -0.24314 -0.136513 0.0188593 0.0253748 -0.119673 0.113995 0.172235 -0.175053 0.00594622 0.217957 -0.511054 0.0182456 -0.0994821 -0.115797 -0.0200638 0.00162238 0.0687136 0.165469 0.132005 0.271986 -0.220698 0.105512 0.0680005 0.0175852 -0.135692 0.112957 0.399163 -0.255005 0.014681 -0.129337 0.32445 0.146493 -0.0462285 -0.0281948 0.264057 -0.281813 -0.027314 -0.0344388 -0.265579 0.0553575 -0.242078 -0.0249714 0.120753 -0.120853 0.206548 0.0165454 -0.260938 -0.0920619 0.112054 0.152625 0.00323024 0.0257512 -0.0537997 -0.0409021 -0.0803464 -0.0902927 -0.00956013 0.0105049 0.119193 0.0794689 -0.230708
429 -0.278052 0.0776183 0.0743003 -0.216415 -0.132618 0.0148287 0.0221846 -0.109535 0.0972012 0.219721 -0.15275 -0.0167861 0.173126 -0.505973 0.0273033 -0.108594 -0.103731 -0.0342077 -0.0138103 0.067928 0.179873 0.121539 0.251965 -0.213489 0.131976 0.0575953 -0.0019285 -0.129213 0.107272 0.373008 -0.25605 -0.0225759 -0.132131 0.328418 0.143976 -0.0418969 -0.0391398 0.245219 -0.283748 -0.0344071 -0.0118742 -0.292384 0.0951275 -0.212139 -0.0237742 0.126627 -0.116822 0.205502 -0.0186558 -0.241289 -0.090976 0.0673521 0.156349 0.00781245 0.0585637 -0.0517972 -0.0352974 -0.0932759 -0.0788108 -0.00403182 0.0474378 0.126829 0.0670216 -0.20054
4 -0.314407 0.0743154 0.0579075 -0.226598 -0.122017 0.0167606 0.00964357 -0.133883 0.0853938 0.213697 -0.184488 -0.0126647 0.162858 -0.481643 0.0275838 -0.0943709 -0.0969677 -0.023451 0.00578895 0.0678227 0.15866 0.129875 0.258089 -0.213336 0.125915 0.05852 -0.0151077 -0.146095 0.0969477 0.364189 -0.273738 -0.0453714 -0.134534 0.349161 0.137667 -0.0267789 -0.0437114 0.254469 -0.314732 -0.0499154 -0.0316051 -0.286037 0.0920228 -0.248394 -0.0470471 0.0929633 -0.121072 0.224155 -0.0227109 -0.223689 -0.0653217 0.106848 0.15362 0.000335717 0.0593882 -0.0492709 -0.0454594 -0.0620023 -0.0555997 0.00763342 0.0644949 0.135559 0.0756389 -0.215981
530 -0.319708 0.0360756 0.0470825 -0.230802 -0.103631 0.0100688 -0.0103189 -0.152991 0.0710219 0.26426 -0.185531 -0.0411711 0.149236 -0.492276 0.0248386 -0.0874879 -0.0849365 -0.00453984 -0.00527402 0.0340991 0.141271 0.117946 0.265808 -0.217605 0.121923 0.0531561 -0.0287446 -0.153362 0.110443 0.372147 -0.311736 -0.0850509 -0.150105 0.377511 0.139371 -0.0606157 -0.0691852 0.224035 -0.348724 -0.0482343 -0.0511121 -0.263562 0.083024 -0.295945 -0.00644541 0.119375 -0.137645 0.230736 -0.000300361 -0.190716 -0.0443579 0.0961744 0.129711 -0.02285 0.055531 -0.0366637 -0.0627845 -0.0633782 -0.0742379 0.0106549 0.101709 0.1524 0.074289 -0.237114
899 -0.293267 0.0902794 0.0701069 -0.215046 -0.11928 0.0272036 0.0277345 -0.115671 0.108082 0.221539 -0.150784 -0.00469843 0.191862 -0.509937 0.0357916 -0.115224 -0.10144 -0.0350633 -0.00639158 0.0810233 0.177661 0.122543 0.251771 -0.204973 0.11689 0.0460913 0.0100698 -0.140346 0.111301 0.364727 -0.244523 -0.0237797 -0.113541 0.326681 0.160866 -0.0461209 -0.0294435 0.26327 -0.261855 -0.0292248 -0.00973398 -0.282528 0.0991542 -0.208168 -0.0387203 0.102607 -0.130325 0.211757 -0.0306429 -0.237615 -0.0956884 0.078081 0.160121 0.0171151 0.0566539 -0.0679498 -0.0359263 -0.0747683 -0.0739737 -0.0128837 0.0219761 0.11576 0.0594235 -0.191544
3758 -0.285965 0.0970633 0.0633246 -0.220797 -0.122494 0.0185789 0.025023 -0.121201 0.0985149 0.217777 -0.16455 -0.00746598 0.173777 -0.511894 0.0260719 -0.113719 -0.0951157 -0.0468785 -0.00754374 0.084325 0.177824 0.113175 0.270086 -0.202901 0.129702 0.0466741 0.00482765 -0.139514 0.110875 0.378296 -0.268883 -0.0269677 -0.109815 0.33103 0.142705 -0.0376372 -0.0411248 0.246368 -0.288017 -0.0452848 -0.0347895 -0.284718 0.0989843 -0.241257 -0.0353155 0.098456 -0.121526 0.209728 -0.0189735 -0.228756 -0.0886941 0.0821288 0.156181 0.00699148 0.0583692 -0.0566449 -0.0268244 -0.0883484 -0.0644514 0.0036828 0.0481933 0.123808 0.0748005 -0.196295
5 -0.303478 0.0667343 0.0575004 -0.224029 -0.132475 0.0298145 0.0143159 -0.127799 0.10195 0.231454 -0.161171 -0.0209362 0.183609 -0.50599 0.025962 -0.108123 -0.115479 -0.00785885 -0.0181674 0.0669441 0.169089 0.131104 0.253595 -0.203278 0.120327 0.0367753 -0.00401265 -0.152558 0.109854 0.390457 -0.258441 -0.0296421 -0.142159 0.338882 0.154701 -0.0546641 -0.0403714 0.253384 -0.294961 -0.0402627 -0.030401 -0.278822 0.0759483 -0.245972 -0.0281469 0.100083 -0.132275 0.21215 0.00318113 -0.229545 -0.0795318 0.083722 0.147747 -0.0068363 0.0749028 -0.0557567 -0.0621723 -0.0747768 -0.0761382 -0.00427411 0.0567179 0.126545 0.0647186 -0.210642
1670 -0.290243 0.0780114 0.0667422 -0.218936 -0.12751 0.0107655 0.00967761 -0.117598 0.0916369 0.226772 -0.152812 -0.00992674 0.175049 -0.496754 0.0256215 -0.110747 -0.112433 -0.0229252 -0.0205657 0.0608523 0.169015 0.118621 0.262748 -0.213806 0.1304 0.0460682 -0.0216863 -0.155064 0.117408 0.36845 -0.251757 -0.0301324 -0.123772 0.327022 0.154708 -0.0352879 -0.0497567 0.229612 -0.292108 -0.0460905 -0.0204817 -0.27676 0.0924718 -0.248502 -0.024462 0.113604 -0.130815 0.207862 -0.00326342 -0.22462 -0.0769177 0.0724447 0.14446 0.00564711 0.064825 -0.0495287 -0.0568981 -0.0757395 -0.0786409 0.00740469 0.0681503 0.107823 0.0631803 -0.201349
1800 -0.310424 0.035374 0.0580094 -0.211925 -0.122802 0.0165112 -0.0238538 -0.161474 0.0971884 0.265588 -0.179305 -0.0536673 0.152584 -0.490378 0.0191731 -0.0944962 -0.0991407 0.00233828 -0.0144242 0.0333278 0.15265 0.106534 0.262462 -0.224109 0.137705 0.0545411 -0.0372177 -0.152729 0.126506 0.381411 -0.287798 -0.0743919 -0.162411 0.351587 0.130688 -0.0572877 -0.0803686 0.221763 -0.351125 -0.0587871 -0.0470503 -0.269389 0.0632947 -0.284544 0.024297 0.110292 -0.129329 0.229612 0.00453159 -0.196882 -0.0565147 0.0720319 0.11422 -0.0124336 0.0636846 -0.0281536 -0.0679089 -0.0829957 -0.0630357 0.0126247 0.112698 0.137806 0.0501101 -0.22117
11 -0.292796 0.0880339 0.0662163 -0.220275 -0.118296 0.0168222 0.0234668 -0.114332 0.103299 0.217635 -0.171656 -0.00889234 0.192493 -0.508475 0.0225823 -0.12616 -0.10355 -0.0208792 -0.0206193 0.0750854 0.191159 0.122785 0.24878 -0.208794 0.119911 0.0403348 -0.00400771 -0.134803 0.119841 0.380046 -0.247966 -0.00686399 -0.128929 0.323905 0.144592 -0.0468706 -0.0430386 0.246871 -0.280043 -0.0345887 -0.0293048 -0.278109 0.0857991 -0.225544 -0.0337438 0.111295 -0.120465 0.197164 -0.00160574 -0.240107 -0.0976076 0.0774938 0.1639 0.00722914 0.0601812 -0.059271 -0.0414023 -0.0816267 -0.076015 -0.00573075 0.0239804 0.124606 0.0654354 -0.199388
1043 -0.299541 0.0622951 0.0612242 -0.215871 -0.112357 0.0286267 0.00810143 -0.137639 0.0890842 0.237649 -0.171471 -0.0208445 0.17413 -0.499608 0.0325333 -0.0997078 -0.100038 -0.0234611 -0.0163061 0.0512262 0.166721 0.116161 0.256175 -0.214559 0.133843 0.0432313 -0.0147263 -0.140807 0.100982 0.366159 -0.274904 -0.0453646 -0.130306 0.337534 0.143931 -0.0487475 -0.0499343 0.236012 -0.303341 -0.0401051 -0.0292346 -0.27869 0.0829958 -0.256631 -0.0156358 0.102139 -0.126684 0.201793 -0.0138428 -0.218153 -0.0745893 0.0836553 0.133283 0.00400575 0.0678754 -0.0481411 -0.0512321 -0.0655884 -0.0748308 -0.00424799 0.0521729 0.12462 0.0668895 -0.20371
533 -0.290187 0.0685119 0.0601287 -0.225275 -0.134263 0.0267297 0.0310298 -0.111612 0.101223 0.224303 -0.152073 -0.0148034 0.179857 -0.503712 0.0224795 -0.115561 -0.106062 -0.0157951 -0.0183723 0.073169 0.173784 0.115651 0.253958 -0.205178 0.142468 0.0508935 -0.002747 -0.153127 0.107228 0.380979 -0.251618 -0.0143536 -0.12303 0.333275 0.147739 -0.0414591 -0.0480699 0.251981 -0.285449 -0.0382537 -0.0258464 -0.272557 0.0877044 -0.23252 -0.028138 0.111196 -0.131745 0.20015 -0.00685595 -0.23936 -0.0862656 0.0720471 0.151835 0.00694998 0.0604256 -0.0567941 -0.0407104 -0.088742 -0.0788176 0.000279088 0.0591253 0.114806 0.0708615 -0.200556
2330 -0.285939 0.0939616 0.0733946 -0.229096 -0.131434 0.0158076 0.0338924 -0.108973 0.0847665 0.209478 -0.152664 0.00918003 0.179011 -0.516005 0.0314352 -0.1107 -0.114538 -0.0410355 -0.0212172 0.0853893 0.184113 0.130895 0.256888 -0.199332 0.123669 0.044104 0.00159736 -0.14179 0.115685 0.364733 -0.24665 -0.0119982 -0.121473 0.333543 0.152657 -0.0451759 -0.0353555 0.24267 -0.270365 -0.0517628 -0.0136761 -0.270665 0.0884745 -0.229634 -0.0355862 0.106408 -0.129505 0.211594 -0.0147923 -0.238379 -0.0873753 0.0736051 0.159082 0.0152174 0.0570451 -0.0513929 -0.0330446 -0.0897353 -0.0690709 -0.010077 0.0367112 0.113785 0.0839783 -0.195039
3739 -0.281786 0.100024 0.0739079 -0.216828 -0.141841 0.0213749 0.0329745 -0.118231 0.119009 0.214447 -0.154925 0.0155526 0.194015 -0.530795 0.0225667 -0.133932 -0.137476 -0.0176209 -0.0291165 0.0781625 0.195012 0.118971 0.261897 -0.207064 0.134758 0.0414258 -0.00392313 -0.135567 0.12869 0.379365 -0.251271 -0.0038305 -0.130406 0.329598 0.155805 -0.0391369 -0.0345667 0.268455 -0.265925 -0.0360881 -0.0206734 -0.283759 0.0672014 -0.217842 -0.0335041 0.101233 -0.125506 0.196929 -0.0122691 -0.258701 -0.110735 0.0542716 0.16492 0.0184305 0.0653309 -0.0578848 -0.0281078 -0.097892 -0.0904683 0.000999317 0.0345676 0.102871 0.0682451 -0.19254
3590 -0.292074 0.0585899 0.0636322 -0.213554 -0.127261 0.020924 0.00664605 -0.131626 0.0857079 0.249018 -0.172897 -0.0228398 0.166419 -0.497317 0.0261478 -0.112205 -0.0990815 -0.00609436 -0.0197912 0.0525535 0.16778 0.11513 0.252815 -0.211516 0.132254 0.0374635 -0.0128774 -0.154471 0.102385 0.379208 -0.26749 -0.0403913 -0.141988 0.352058 0.149202 -0.0439147 -0.0414645 0.234719 -0.3163 -0.0511194 -0.04054 -0.27378 0.0968694 -0.259676 -0.011616 0.106789 -0.131156 0.213318 -0.0020896 -0.210343 -0.0670357 0.079139 0.131547 0.0015491 0.0664524 -0.0343691 -0.0533765 -0.0858153 -0.0732839 -0.00510905 0.0851243 0.133833 0.0733168 -0.223106
1825 -0.277492 0.089554 0.077267 -0.216088 -0.118754 0.010876 0.0309781 -0.106175 0.105 0.208226 -0.150449 -0.00263512 0.171634 -0.513168 0.0230446 -0.113607 -0.103837 -0.0369002 -0.0115206 0.0874247 0.161696 0.127514 0.264763 -0.198399 0.12862 0.0592894 0.00793194 -0.135088 0.121966 0.381074 -0.248185 -0.0104236 -0.11623 0.328889 0.147602 -0.0400697 -0.0337108 0.252699 -0.277167 -0.0402823 -0.0310584 -0.269504 0.0991717 -0.22946 -0.0301023 0.0958387 -0.129532 0.205105 -0.0159619 -0.244485 -0.0885752 0.0797466 0.146138 0.0112322 0.066654 -0.061223 -0.0385111 -0.0842051 -0.066146 -0.0085221 0.0348351 0.1209 0.073768 -0.200296
2929 -0.287578 0.0756992 0.0629222 -0.218791 -0.124253 0.0311412 0.0152203 -0.114088 0.0974602 0.243158 -0.158845 -0.0181058 0.161022 -0.50951 0.0264882 -0.118543 -0.105246 -0.0357281 -0.0263995 0.0728707 0.182284 0.114941 0.239003 -0.192295 0.131092 0.0619617 -0.0206943 -0.134125 0.12829 0.384905 -0.264582 -0.0284349 -0.131924 0.332205 0.134977 -0.0491976 -0.0485457 0.234899 -0.285816 -0.0477776 -0.0115624 -0.279824 0.088222 -0.236931 -0.014206 0.112727 -0.1179 0.218352 -0.020207 -0.233104 -0.0943151 0.0602523 0.160427 0.00449654 0.0505809 -0.0482484 -0.0398323 -0.0976696 -0.0634229 0.00437227 0.0767805 0.122782 0.0581478 -0.202947
2986 -0.287337 0.0700012 0.0647982 -0.225243 -0.124354 0.0163128 0.006078 -0.12431 0.0874732 0.228596 -0.162575 -0.018135 0.167045 -0.501766 0.0269874 -0.105984 -0.0977656 -0.0195699 -0.0168967 0.0760019 0.170836 0.124734 0.258833 -0.221136 0.126696 0.0553082 -0.0196365 -0.144589 0.117608 0.37521 -0.259463 -0.0419566 -0.129741 0.340932 0.137872 -0.0487275 -0.050444 0.234025 -0.312376 -0.044891 -0.0294064 -0.263378 0.0919045 -0.262107 -0.0111926 0.0964892 -0.125854 0.214205 -0.018581 -0.227958 -0.0754998 0.0861408 0.138598 0.00577006 0.0540205 -0.0530575 -0.0597302 -0.0879472 -0.0666812 0.00918253 0.0613473 0.11554 0.0650854 -0.20782
2163 -0.279447 0.0862027 0.0658036 -0.218995 -0.132693 0.0282893 0.0334869 -0.117054 0.0942653 0.205509 -0.154152 0.00385039 0.194583 -0.501458 0.0177438 -0.111624 -0.109637 -0.029906 -0.0276543 0.0840195 0.171814 0.12753 0.255933 -0.213865 0.116684 0.0400709 -0.00289267 -0.151039 0.110997 0.376308 -0.235034 -0.0145912 -0.11523 0.317644 0.14671 -0.033146 -0.0361511 0.260177 -0.267583 -0.0353356 -0.0119647 -0.280493 0.0883565 -0.211703 -0.034833 0.0952027 -0.144214 0.207105 -0.0241496 -0.245841 -0.108484 0.0719536 0.14411 0.0163299 0.0565815 -0.0621165 -0.0369714 -0.0876725 -0.0731147 -0.00717392 0.03396 0.111029 0.0724532 -0.195654
2849 -0.278681 0.0991936 0.0653995 -0.231035 -0.127964 0.018242 0.0522661 -0.112701 0.107981 0.212693 -0.155361 0.012481 0.190836 -0.52709 0.0276211 -0.137602 -0.118668 -0.0408014 -0.026947 0.0900499 0.187527 0.137045 0.267545 -0.220547 0.124701 0.055746 -0.00530054 -0.13754 0.0989328 0.376358 -0.241238 0.0100245 -0.112596 0.332226 0.14007 -0.0446427 -0.0320747 0.259834 -0.251816 -0.022288 0.00191123 -0.272848 0.101918 -0.212226 -0.0414608 0.106988 -0.133333 0.212845 -0.0148414 -0.273627 -0.0941894 0.0652324 0.154264 0.0302903 0.0519783 -0.0608967 -0.0234114 -0.102212 -0.0763971 -0.0181739 0.013886 0.103254 0.0753293 -0.186603
1613 -0.283927 0.0781878 0.060671 -0.213523 -0.121799 0.0242212 0.0245202 -0.119033 0.107381 0.215031 -0.171861 -0.0106462 0.175755 -0.500008 0.0281009 -0.111067 -0.102809 -0.0135972 -0.021949 0.0640236 0.182761 0.120014 0.255257 -0.204145 0.13673 0.0501186 -0.00733392 -0.148094 0.111699 0.373661 -0.25575 -0.0307035 -0.12555 0.341073 0.153739 -0.0466881 -0.0404574 0.241821 -0.272426 -0.0430389 -0.021415 -0.273285 0.0922271 -0.249145 -0.0136234 0.116738 -0.117953 0.215487 0.00218765 -0.227609 -0.0725534 0.0725044 0.155863 0.00352608 0.0741088 -0.0485477 -0.0342904 -0.0808613 -0.0646273 0.00418931 0.0436447 0.114708 0.0700626 -0.193478
1614 -0.281964 0.0947873 0.0691999 -0.232728 -0.125628 0.030568 0.0449191 -0.0954098 0.114558 0.207186 -0.14438 0.0278648 0.198156 -0.512537 0.0356157 -0.128816 -0.126094 -0.0241646 -0.0336741 0.101339 0.184442 0.119356 0.253245 -0.205283 0.122861 0.0432909 0.00892713 -0.135924 0.115475 0.384766 -0.24134 -0.00561847 -0.0984673 0.323093 0.153118 -0.0302298 -0.033484 0.263622 -0.252303 -0.0451251 -0.00596545 -0.288526 0.0800723 -0.202636 -0.0441239 0.108116 -0.13266 0.198534 -0.0185593 -0.271696 -0.111924 0.0686167 0.157107 0.0207079 0.0707268 -0.0663949 -0.021577 -0.0811626 -0.0752819 -0.00809317 0.0203811 0.0992727 0.073004 -0.18976
1615 -0.277661 0.0949473 0.0655883 -0.218299 -0.132685 0.0215051 0.042699 -0.10398 0.105763 0.208911 -0.151268 0.0194799 0.190974 -0.524146 0.0292014 -0.1296 -0.118689 -0.0346458 -0.0312811 0.0876985 0.185034 0.115544 0.261825 -0.203031 0.127827 0.0444976 0.00982516 -0.134193 0.114453 0.373604 -0.24253 -0.00346629 -0.107799 0.326532 0.153625 -0.0276227 -0.0358059 0.268405 -0.264865 -0.0425239 -0.0109693 -0.285753 0.0924665 -0.209072 -0.0376605 0.0957383 -0.130275 0.19805 -0.0146635 -0.260167 -0.104742 0.069688 0.1641 0.0189526 0.0720665 -0.0574712 -0.0190564 -0.0878124 -0.0895297 -0.0133159 0.0268003 0.111625 0.0697671 -0.196148
1751 -0.291979 0.0921848 0.0756403 -0.224103 -0.119131 0.0167866 0.0224934 -0.128175 0.0923277 0.223654 -0.161754 -0.00244006 0.18796 -0.50731 0.036249 -0.114132 -0.112903 -0.0289374 -0.0248674 0.083643 0.168658 0.120792 0.256609 -0.219342 0.128634 0.0364947 0.00153471 -0.143788 0.113091 0.383801 -0.257777 -0.0283421 -0.123923 0.337459 0.158064 -0.0396292 -0.031103 0.253233 -0.293207 -0.0391269 -0.0330374 -0.284787 0.0847386 -0.230335 -0.0393179 0.0963699 -0.141942 0.216546 -0.0101771 -0.237854 -0.0921541 0.08202 0.14922 -0.000792296 0.0775632 -0.0511326 -0.0555587 -0.0874918 -0.068875 -0.0152747 0.0434029 0.120628 0.0671769 -0.19529
3681 -0.290702 0.072389 0.0653941 -0.211523 -0.124411 0.0246406 0.0159921 -0.123164 0.089278 0.226283 -0.165932 -0.0200046 0.172689 -0.502122 0.027565 -0.104172 -0.114315 -0.0291965 -0.00835058 0.0714952 0.168144 0.124336 0.25432 -0.217848 0.128482 0.0440412 -0.0113221 -0.144466 0.107887 0.378953 -0.262643 -0.0380137 -0.132879 0.338315 0.139896 -0.0439889 -0.0450858 0.249928 -0.307743 -0.0362891 -0.0339205 -0.284541 0.0811199 -0.256033 -0.0164018 0.112086 -0.124576 0.224447 -0.000131682 -0.230944 -0.0755407 0.0811073 0.142573 0.0160816 0.0559797 -0.0465557 -0.035498 -0.0788893 -0.0718595 -0.00565067 0.0672755 0.114434 0.0742712 -0.212971
2659 -0.284161 0.0813033 0.0729996 -0.228759 -0.129035 0.0278253 0.0197992 -0.120033 0.0925952 0.208926 -0.150199 0.00721292 0.181098 -0.513193 0.0392542 -0.122951 -0.115105 -0.0308968 -0.0281581 0.0786892 0.173855 0.12071 0.254341 -0.206623 0.122412 0.0486379 0.00450319 -0.137095 0.110754 0.381021 -0.249587 -0.0121913 -0.112539 0.326177 0.153792 -0.04585 -0.0526679 0.252216 -0.277627 -0.0522167 -0.0300224 -0.279834 0.0948517 -0.232733 -0.0301212 0.104917 -0.12791 0.200097 -0.0169445 -0.242639 -0.0919079 0.0787691 0.155148 0.00924964 0.0690176 -0.0591958 -0.0374483 -0.0796469 -0.0747459 -0.0124456 0.0370475 0.104572 0.078911 -0.19656
489 -0.291791 0.0805554 0.0707338 -0.217812 -0.125588 0.0275465 0.0218832 -0.119676 0.104541 0.236226 -0.14462 -0.0101747 0.177162 -0.509332 0.0296274 -0.114453 -0.106785 -0.037419 -0.00931405 0.0756688 0.172727 0.128278 0.260761 -0.204828 0.129526 0.0441515 0.00119995 -0.144911 0.115247 0.38342 -0.25394 -0.0170469 -0.12766 0.334439 0.143766 -0.030751 -0.0411393 0.25154 -0.290455 -0.0275488 -0.0270909 -0.282453 0.0891221 -0.23986 -0.017017 0.117411 -0.126121 0.211467 -0.0181957 -0.23052 -0.0955549 0.0757313 0.155605 0.0178673 0.0632165 -0.0546081 -0.0411241 -0.0901439 -0.0705432 -0.00206135 0.0567385 0.12257 0.0761528 -0.207107
2155 -0.276605 0.0942976 0.0740292 -0.226346 -0.12677 0.0299185 0.0386227 -0.108997 0.112339 0.193372 -0.140139 0.0131493 0.193759 -0.530735 0.0258915 -0.128136 -0.134611 -0.0489652 -0.0362289 0.0978591 0.187846 0.130873 0.249344 -0.204698 0.1354 0.0412798 0.0198243 -0.131783 0.116706 0.376207 -0.239828 -0.00128873 -0.103737 0.3212 0.153089 -0.0259406 -0.0248395 0.272 -0.249436 -0.0444313 -0.0130557 -0.298363 0.0893081 -0.196452 -0.0466714 0.108098 -0.130162 0.201207 -0.0245005 -0.262091 -0.118393 0.0652592 0.161879 0.0229309 0.0632189 -0.0522808 -0.0196428 -0.0898608 -0.0730979 -0.0240267 0.00959199 0.11241 0.0720572 -0.181579
2797 -0.289454 0.103456 0.0628732 -0.236564 -0.135412 0.0370676 0.0148592 -0.124413 0.0943315 0.222827 -0.154163 -0.00799953 0.181896 -0.520498 0.029063 -0.102719 -0.126835 -0.0289814 -0.0211352 0.0866733 0.184692 0.131249 0.279973 -0.217236 0.139638 0.0379416 -0.0108346 -0.13782 0.130147 0.398199 -0.247165 -0.0129347 -0.141334 0.32691 0.129273 -0.0245369 -0.0520101 0.268757 -0.296592 -0.0503588 -0.0131976 -0.296817 0.0843635 -0.241945 -0.0194329 0.108878 -0.144342 0.215013 0.00167474 -0.252216 -0.106128 0.0616878 0.145579 0.0219428 0.0585355 -0.0511161 -0.058301 -0.101283 -0.0760615 0.000224673 0.0406038 0.114933 0.0664308 -0.195915
2671 -0.286518 0.0916536 0.066997 -0.226502 -0.13231 0.026 0.0207747 -0.130639 0.0952578 0.220891 -0.168189 0.000104694 0.194112 -0.518911 0.0225609 -0.114047 -0.114332 -0.0283388 -0.020505 0.0813461 0.172956 0.122539 0.25579 -0.219298 0.124684 0.0505606 -0.00232679 -0.147193 0.10616 0.379571 -0.261921 -0.0330457 -0.121293 0.340314 0.148257 -0.051364 -0.0420858 0.250424 -0.283383 -0.038822 -0.0242077 -0.280526 0.0865374 -0.240466 -0.0263776 0.103229 -0.13358 0.199042 -0.00833139 -0.234967 -0.0832122 0.0674612 0.149729 0.00397833 0.0612597 -0.0651725 -0.0377575 -0.0739052 -0.0695134 -0.0097311 0.0403961 0.12454 0.0735213 -0.19653
881 -0.295348 0.0810996 0.0629011 -0.223979 -0.137221 0.0249583 0.0184896 -0.11631 0.0933775 0.228317 -0.16137 0.00461022 0.188474 -0.509715 0.0226753 -0.121083 -0.110869 -0.0305521 -0.0267716 0.0742251 0.175011 0.12164 0.26358 -0.21749 0.116878 0.058761 -0.00458486 -0.139012 0.114249 0.372062 -0.268066 -0.0221999 -0.115777 0.333627 0.161887 -0.0373886 -0.0341328 0.239256 -0.277099 -0.048537 -0.0185088 -0.280329 0.0803221 -0.227666 -0.0436319 0.105105 -0.119774 0.207351 -0.0190022 -0.249939 -0.0903265 0.0829086 0.148538 0.013099 0.0592037 -0.0490888 -0.0301572 -0.0845258 -0.0817624 -0.00459268 0.0492096 0.120037 0.064892 -0.202183
882 -0.305164 0.0682033 0.063261 -0.227655 -0.128727 0.0294985 0.0122563 -0.122566 0.100041 0.222448 -0.169653 -0.0127964 0.188519 -0.50929 0.0283571 -0.11128 -0.118319 -0.0219809 -0.0245895 0.0615215 0.189611 0.124026 0.253758 -0.202348 0.143205 0.0557739 -0.0130767 -0.142303 0.107581 0.379885 -0.265342 -0.0191507 -0.140062 0.351227 0.145823 -0.0392582 -0.0457076 0.245913 -0.29839 -0.0486411 -0.033987 -0.279228 0.0813344 -0.244556 -0.0214404 0.107158 -0.119456 0.207602 -0.00361878 -0.239007 -0.0775053 0.075556 0.151214 0.00930564 0.0711436 -0.0483712 -0.0418613 -0.0905827 -0.08592 0.00664589 0.0667473 0.121571 0.0674101 -0.20431
883 -0.278443 0.116695 0.0796796 -0.228356 -0.139966 0.0240281 0.0356208 -0.110981 0.115994 0.185418 -0.140252 0.0117325 0.186598 -0.534111 0.0322639 -0.139598 -0.124258 -0.0329848 -0.0393851 0.10869 0.193699 0.117579 0.250693 -0.21375 0.116502 0.049449 0.000834652 -0.128834 0.118462 0.39356 -0.237329 0.00540014 -0.112181 0.33175 0.170206 -0.0240481 -0.0442267 0.278035 -0.256371 -0.0358194 -0.0111704 -0.297136 0.0787655 -0.200913 -0.0364657 0.108372 -0.132209 0.218875 -0.0171156 -0.277591 -0.104082 0.0782809 0.180969 0.0310606 0.0669078 -0.0712656 -0.0184944 -0.105212 -0.0857592 -0.000484252 0.0145043 0.100681 0.0777009 -0.179738
1655 -0.287993 0.0899567 0.0658258 -0.221058 -0.132479 0.0259519 0.0263223 -0.106506 0.097872 0.203878 -0.168071 0.0125979 0.195489 -0.504524 0.0317079 -0.121713 -0.110325 -0.0304863 -0.0282787 0.0808071 0.173262 0.122323 0.252578 -0.197834 0.131768 0.0399188 0.00137482 -0.133918 0.106701 0.377983 -0.246565 -0.015572 -0.122326 0.337279 0.154222 -0.0370477 -0.0280063 0.263611 -0.279964 -0.0457626 -0.0334584 -0.286456 0.0949841 -0.230923 -0.0478291 0.108624 -0.128368 0.206742 -0.026214 -0.23748 -0.0829425 0.0728429 0.153474 0.00912099 0.062555 -0.0632908 -0.0365749 -0.085275 -0.0785568 0.006265 0.0270452 0.12054 0.0721145 -0.194438
1557 -0.296321 0.081942 0.058483 -0.233887 -0.123142 0.030604 0.0132427 -0.124957 0.0947534 0.2222 -0.163679 -0.0128421 0.176304 -0.497345 0.0211459 -0.094848 -0.102573 -0.0312725 -0.0232096 0.066685 0.175372 0.128208 0.265564 -0.22239 0.127888 0.0614546 -0.0166722 -0.145692 0.11935 0.376948 -0.25375 -0.035895 -0.137519 0.337256 0.150773 -0.0525642 -0.0537815 0.255063 -0.291193 -0.0447905 -0.0190021 -0.275982 0.0799572 -0.23156 -0.0232184 0.100621 -0.126498 0.210079 -0.0133326 -0.23863 -0.0795347 0.0816578 0.135721 -0.00276555 0.0668597 -0.0516241 -0.0495754 -0.0846328 -0.0743571 0.00286862 0.0565807 0.12581 0.0643869 -0.203978
3819 -0.284904 0.0751122 0.0606326 -0.229529 -0.125078 0.0188135 0.0347878 -0.113926 0.0977882 0.214344 -0.16086 0.00653372 0.182836 -0.522901 0.025956 -0.114019 -0.120624 -0.0163729 -0.0215226 0.0753364 0.175178 0.130648 0.254764 -0.213861 0.134734 0.044411 -0.0104223 -0.152977 0.126353 0.380967 -0.261117 -0.0129775 -0.118486 0.335305 0.147963 -0.0457543 -0.034745 0.245013 -0.290807 -0.0436612 -0.0267597 -0.279894 0.0738407 -0.236516 -0.028344 0.100393 -0.129177 0.203486 -0.0114577 -0.248869 -0.091322 0.0608763 0.156282 0.000687287 0.0687676 -0.055166 -0.0381927 -0.0786603 -0.0806662 -0.0163949 0.0426089 0.115593 0.0610261 -0.188392
6 -0.296241 0.0305071 0.0548281 -0.203111 -0.124396 0.015949 -0.0124061 -0.133565 0.0950088 0.24674 -0.17328 -0.0378433 0.151555 -0.475081 0.0333566 -0.080415 -0.0866374 -0.00596238 -0.0109946 0.0482321 0.150483 0.115986 0.279956 -0.231511 0.118923 0.0566801 -0.0165476 -0.153945 0.121798 0.393978 -0.294396 -0.0495406 -0.153075 0.352993 0.151725 -0.0569727 -0.0652 0.239165 -0.333269 -0.0484735 -0.0507955 -0.257387 0.0941424 -0.270302 -0.00415106 0.107831 -0.119766 0.228464 0.00326898 -0.204312 -0.0578474 0.0873047 0.121757 -0.00899637 0.0617042 -0.0294394 -0.0794671 -0.0546168 -0.0552109 0.0128941 0.0905567 0.139923 0.0591667 -0.238419
289 -0.300988 0.0597746 0.072127 -0.225926 -0.131143 0.0197863 0.0115103 -0.118912 0.0912192 0.22817 -0.173676 -0.000895589 0.173273 -0.493777 0.0406027 -0.109466 -0.086994 -0.0161764 -0.00655772 0.0538983 0.160446 0.133154 0.259386 -0.224307 0.128581 0.057606 -0.00799936 -0.14474 0.113657 0.393785 -0.262615 -0.0461303 -0.130426 0.341641 0.137816 -0.037103 -0.0527405 0.252656 -0.306534 -0.0316205 -0.0252155 -0.285615 0.0987503 -0.251587 -0.0185842 0.118086 -0.125776 0.219506 -0.0212841 -0.219935 -0.062313 0.0779103 0.144801 0.00851617 0.0703996 -0.04842 -0.0519657 -0.0839639 -0.0639671 -0.00117222 0.0684539 0.131707 0.0668835 -0.209322
2281 -0.297397 0.09665 0.0747566 -0.220677 -0.130482 0.0241202 0.0338493 -0.111606 0.0951629 0.20983 -0.150526 0.0148954 0.187272 -0.5239 0.0253419 -0.133175 -0.111415 -0.0300292 -0.020574 0.0918314 0.184485 0.123582 0.250064 -0.203445 0.127524 0.0459969 0.0109155 -0.144526 0.117536 0.368452 -0.253538 -0.00183504 -0.123063 0.333386 0.167266 -0.0361225 -0.0305142 0.245641 -0.259644 -0.0296261 -0.0109791 -0.290066 0.0913222 -0.205732 -0.0443151 0.1066 -0.134005 0.203178 -0.0249343 -0.249598 -0.0978571 0.0667818 0.178847 0.0138739 0.0551519 -0.0545745 -0.018966 -0.0966812 -0.0799647 -0.00827741 0.0300805 0.11801 0.0766332 -0.20043
1835 -0.283625 0.0934896 0.0942862 -0.229753 -0.125304 0.0204432 0.0390893 -0.104348 0.101077 0.212556 -0.14853 0.0181002 0.185118 -0.526591 0.0279973 -0.134091 -0.117109 -0.0426744 -0.0198127 0.0913973 0.179515 0.136222 0.266801 -0.206381 0.133865 0.0615854 -0.000663514 -0.136516 0.109954 0.379618 -0.240413 0.000206317 -0.114916 0.335037 0.156928 -0.0338705 -0.0382988 0.253759 -0.270667 -0.0432108 -0.0140561 -0.298416 0.104606 -0.209448 -0.044459 0.124025 -0.115801 0.201425 -0.0266629 -0.262452 -0.101841 0.0701107 0.173271 0.0212858 0.0657337 -0.0634394 -0.0215891 -0.0870601 -0.0801958 -0.00419286 0.0175029 0.10206 0.0777805 -0.193208
974 -0.293814 0.0688315 0.0553173 -0.220762 -0.131515 0.0131891 0.00279949 -0.110235 0.0897669 0.236594 -0.173363 -0.0189214 0.171845 -0.500336 0.0295864 -0.109908 -0.0932519 -0.0203833 -0.00875414 0.0516511 0.172537 0.118422 0.263461 -0.214134 0.123943 0.0495181 -0.00431508 -0.144111 0.0975021 0.384101 -0.277111 -0.0411782 -0.133388 0.346636 0.157351 -0.0465034 -0.0491973 0.236769 -0.303885 -0.0460645 -0.0218662 -0.281033 0.0843313 -0.241337 -0.0286403 0.106482 -0.136865 0.206302 -0.00874177 -0.228129 -0.077826 0.0825447 0.140117 0.00369335 0.0628373 -0.0466231 -0.0468221 -0.083222 -0.0714859 -0.00583485 0.0575116 0.130551 0.0636487 -0.217995
3631 -0.314921 0.00737544 0.0319242 -0.210504 -0.112453 0.0159607 -0.0368503 -0.154755 0.0729373 0.284757 -0.203809 -0.0632468 0.116844 -0.464059 0.0225368 -0.0840723 -0.0747624 -0.00439961 0.00875328 0.00515318 0.145997 0.10097 0.255311 -0.228823 0.121413 0.056169 -0.0392396 -0.167354 0.101419 0.37241 -0.304745 -0.0905175 -0.156863 0.370089 0.121128 -0.0782989 -0.0735959 0.192914 -0.372504 -0.0552344 -0.0486499 -0.242233 0.077757 -0.30749 0.0222471 0.100094 -0.134987 0.231799 0.019654 -0.149104 -0.0349001 0.0957774 0.106504 -0.0171763 0.0611436 -0.0282976 -0.0807275 -0.0569327 -0.055599 0.0198637 0.123464 0.141516 0.0653557 -0.245675
2484 -0.275902 0.097005 0.0741353 -0.223483 -0.136017 0.0326515 0.0283437 -0.109341 0.0992077 0.186517 -0.152681 -0.000862858 0.191334 -0.519872 0.0397145 -0.130239 -0.0934368 -0.0219895 -0.0243978 0.0914557 0.171691 0.131511 0.25929 -0.203652 0.134067 0.0610694 0.000835831 -0.131276 0.102944 0.380891 -0.252356 0.00160991 -0.11272 0.323863 0.158119 -0.0271054 -0.0318476 0.268766 -0.242868 -0.0324667 -0.000273304 -0.299935 0.0930557 -0.2157 -0.056429 0.116185 -0.137477 0.194261 -0.0301048 -0.250197 -0.117736 0.072866 0.177889 0.0221739 0.0618795 -0.0549361 -0.0302291 -0.0858466 -0.0773803 -0.00709422 0.0113406 0.111197 0.0720165 -0.197893
7 -0.262354 0.0654871 0.0544682 -0.233857 -0.129211 0.0120662 0.0663091 -0.111606 0.121805 0.22789 -0.151285 0.00428758 0.17659 -0.516604 0.0320678 -0.108663 -0.111496 -0.0381803 -0.023211 0.0984392 0.193031 0.112181 0.252101 -0.227574 0.122695 0.0391098 -0.0239416 -0.135491 0.114346 0.394979 -0.237204 -0.0217965 -0.114434 0.328242 0.168636 -0.0435131 -0.00998535 0.26487 -0.264648 -0.0368609 -0.0191407 -0.317452 0.104207 -0.201038 -0.0405339 0.117767 -0.135434 0.20076 -0.000474229 -0.262098 -0.118341 0.088458 0.168704 0.0150092 0.0425896 -0.0699057 -0.068732 -0.079375 -0.0777254 0.00806386 0.0264723 0.131353 0.0750777 -0.215806
8 -0.289288 0.103246 0.0863455 -0.221654 -0.12177 0.0192392 0.0403119 -0.100582 0.108703 0.197627 -0.157015 0.0161809 0.198814 -0.536479 0.0118912 -0.110841 -0.110912 -0.0313047 -0.0134853 0.105464 0.180361 0.11041 0.287883 -0.22183 0.120596 0.0550929 0.00728049 -0.136281 0.0956836 0.374422 -0.238659 0.00725068 -0.101302 0.331218 0.164344 -0.0273027 -0.0219104 0.26483 -0.269574 -0.0427267 -0.0143193 -0.31302 0.112726 -0.209752 -0.0319704 0.103734 -0.143723 0.196952 -0.0348711 -0.273023 -0.0944231 0.0893437 0.155555 0.0138718 0.0700909 -0.0781469 -0.0324119 -0.0744069 -0.0889456 -0.0161698 0.00611472 0.116597 0.0864354 -0.196893
1249 -0.282767 0.0864432 0.0631878 -0.215809 -0.12649 0.0283911 0.029963 -0.111238 0.108417 0.202374 -0.149948 -0.00473758 0.18241 -0.512016 0.0307461 -0.116908 -0.108945 -0.0233001 -0.0189531 0.0787243 0.179509 0.127482 0.268877 -0.203905 0.131466 0.0478664 0.00653625 -0.132851 0.117919 0.377789 -0.249637 -0.0183086 -0.111452 0.327548 0.144534 -0.0439087 -0.0409813 0.258456 -0.274252 -0.0493131 -0.0122938 -0.280615 0.0898819 -0.212405 -0.0374408 0.102031 -0.129409 0.195046 -0.0112807 -0.252772 -0.0919547 0.061458 0.16709 0.0109659 0.0696554 -0.0597341 -0.0266006 -0.0889226 -0.0836874 -0.00190945 0.0422501 0.110506 0.0654113 -0.193593
3750 -0.284591 0.071146 0.0682523 -0.216503 -0.127703 0.0215642 0.0122746 -0.109936 0.0982652 0.224967 -0.159004 -0.0146963 0.170783 -0.495622 0.0237515 -0.0908896 -0.100861 -0.0235647 -0.0186483 0.0668595 0.156971 0.128146 0.265984 -0.21114 0.121238 0.0371335 -0.00253384 -0.149186 0.110734 0.3749 -0.271737 -0.0298478 -0.139638 0.343566 0.161025 -0.0481064 -0.0487961 0.241054 -0.28965 -0.0398192 -0.0290343 -0.291438 0.0936915 -0.233185 -0.0175905 0.0944984 -0.123242 0.207805 -0.0012952 -0.217052 -0.0907993 0.0858094 0.144965 -0.0107945 0.0699347 -0.0552341 -0.0575466 -0.0847962 -0.0672163 -0.0020517 0.0518198 0.117313 0.0738197 -0.204433
3586 -0.267543 0.0986931 0.0591846 -0.229832 -0.131574 0.0236918 0.0389874 -0.0995601 0.106403 0.207753 -0.145038 0.016087 0.195683 -0.521371 0.0228495 -0.127917 -0.119375 -0.0352184 -0.0256378 0.0791882 0.185412 0.136587 0.248896 -0.194919 0.120781 0.0441116 -0.00753563 -0.135391 0.104342 0.384457 -0.230171 -7.49381e-05 -0.11372 0.328164 0.153742 -0.0359192 -0.0299196 0.260278 -0.249542 -0.0297839 -0.0101153 -0.303385 0.0924523 -0.188741 -0.0459641 0.108144 -0.136595 0.201722 -0.0210326 -0.25367 -0.10211 0.070574 0.172287 0.027458 0.0574627 -0.05123 -0.0219292 -0.0983819 -0.0863862 -0.00436096 0.0140086 0.112205 0.0705409 -0.190414
9 -0.357199 -0.0323753 0.024917 -0.230805 -0.109954 0.0142049 -0.0738996 -0.188534 0.0460104 0.354877 -0.234698 -0.109319 0.0994403 -0.473961 0.0156469 -0.0600118 -0.0552934 0.0136138 0.0224667 -0.0297361 0.128457 0.0936796 0.28307 -0.241211 0.152951 0.0697864 -0.0642206 -0.184442 0.123821 0.404255 -0.381741 -0.146167 -0.208164 0.441304 0.128593 -0.108451 -0.114471 0.180135 -0.470479 -0.0617217 -0.078269 -0.232375 0.0914679 -0.392619 0.0536724 0.129467 -0.129606 0.28147 0.0215291 -0.112953 -0.00349964 0.1041 0.11052 -0.0520089 0.0574308 -0.00157388 -0.10393 -0.0457092 -0.0470174 0.0182233 0.205619 0.189927 0.0503174 -0.294612
10 -0.27494 0.0873773 0.07481 -0.212538 -0.130112 0.0258504 0.0335525 -0.107629 0.0983931 0.212016 -0.14463 0.018623 0.202166 -0.506338 0.0420731 -0.108225 -0.109714 -0.0209039 -0.0283589 0.0914967 0.181894 0.124404 0.266792 -0.206314 0.119983 0.0469035 0.00841767 -0.140732 0.0882999 0.376583 -0.239731 -0.00428558 -0.108257 0.322706 0.160566 -0.0267892 -0.0291998 0.28137 -0.246172 -0.0498967 -0.00287913 -0.29746 0.0820158 -0.200357 -0.0559588 0.103379 -0.143278 0.197385 -0.0166372 -0.260505 -0.100979 0.0888563 0.153845 0.0273643 0.0519355 -0.0573831 -0.0356382 -0.0861684 -0.0922699 -0.0079044 0.0162875 0.101456 0.0767374 -0.20799
1930 -0.287286 0.073768 0.075581 -0.222881 -0.132188 0.0363213 0.0268654 -0.126965 0.0996288 0.221739 -0.150701 -0.00450196 0.192941 -0.499762 0.0393547 -0.098885 -0.0914811 -0.0295511 -0.0169171 0.0740745 0.168989 0.135639 0.261849 -0.212931 0.115895 0.0479339 -0.00429814 -0.153517 0.102899 0.385394 -0.268473 -0.0148394 -0.137345 0.327608 0.14527 -0.0456737 -0.0384068 0.266802 -0.279472 -0.040647 -0.00787108 -0.286973 0.0989194 -0.220669 -0.0329251 0.104025 -0.145145 0.207139 -0.0325334 -0.234407 -0.0921218 0.0813904 0.14839 0.0106956 0.0553254 -0.0499555 -0.0464419 -0.088147 -0.0723613 -0.00124017 0.0382861 0.119258 0.0732883 -0.215159
3340 -0.289327 0.104233 0.0826628 -0.219288 -0.134839 0.0243978 0.0314268 -0.114503 0.0946042 0.210684 -0.144726 0.0113376 0.195848 -0.519678 0.0372022 -0.113754 -0.10687 -0.0413203 -0.0338 0.0894321 0.175481 0.123634 0.251577 -0.214328 0.126477 0.0435655 0.00958362 -0.128116 0.0952266 0.367665 -0.256461 -0.00851054 -0.129715 0.331382 0.145862 -0.0353093 -0.0391898 0.255522 -0.267856 -0.0405206 -0.00656986 -0.287006 0.0926024 -0.208784 -0.0489029 0.103718 -0.138722 0.198105 -0.0257761 -0.251582 -0.0963275 0.0806138 0.159388 0.0268879 0.0633098 -0.0630466 -0.0358817 -0.0890444 -0.0680763 -0.00857738 0.0378882 0.124453 0.0719022 -0.204984
238 -0.297903 0.057989 0.0563787 -0.220333 -0.120831 0.0374778 -0.0103052 -0.129379 0.0862012 0.246645 -0.168478 -0.0273936 0.176229 -0.489584 0.0250125 -0.091554 -0.109606 -0.00536132 -0.00680244 0.0612255 0.154576 0.129851 0.259841 -0.220886 0.11748 0.045341 -0.014831 -0.148849 0.108808 0.371816 -0.277562 -0.0568108 -0.137202 0.354281 0.160116 -0.0451437 -0.0394076 0.2627 -0.309769 -0.0427466 -0.0297446 -0.28131 0.0866483 -0.238778 -0.0243412 0.0835659 -0.146808 0.212971 -0.00384269 -0.220955 -0.0709014 0.103872 0.124255 -0.0155217 0.061967 -0.0410498 -0.0747336 -0.0773986 -0.0881759 0.0127439 0.0638173 0.136599 0.072573 -0.235982
1875 -0.292735 0.0864119 0.0518681 -0.223704 -0.126937 0.0396018 0.00583331 -0.122231 0.0969744 0.216677 -0.164823 -0.0209202 0.189279 -0.497292 0.0230245 -0.101564 -0.106472 -0.0211866 -0.0195576 0.0723022 0.161843 0.13052 0.263314 -0.212867 0.122465 0.0468915 0.00253278 -0.153173 0.105752 0.37658 -0.268428 -0.0292074 -0.139658 0.332002 0.169721 -0.0480284 -0.0465499 0.264963 -0.281048 -0.0503758 -0.0198497 -0.285779 0.0963438 -0.227411 -0.0395956 0.0787375 -0.137172 0.20116 -0.00939253 -0.24743 -0.0900711 0.0934947 0.141368 0.00479831 0.0633483 -0.0525931 -0.077349 -0.0867991 -0.0716018 0.00728201 0.0503587 0.121915 0.0639547 -0.219249
2548 -0.276876 0.0774159 0.0662648 -0.222246 -0.126855 0.0403653 0.0124391 -0.120136 0.102446 0.204333 -0.155021 -0.0138412 0.182998 -0.512277 0.0263778 -0.113478 -0.109629 -0.0316083 -0.0235232 0.071683 0.171204 0.13011 0.256531 -0.210241 0.128182 0.0474127 -0.00523255 -0.136531 0.110949 0.368092 -0.253545 -0.0165371 -0.126468 0.318778 0.155506 -0.0455185 -0.0290385 0.271851 -0.275682 -0.0419068 -0.0140699 -0.284722 0.102529 -0.222488 -0.0368348 0.090433 -0.137635 0.208958 -0.0241358 -0.233415 -0.10242 0.0831126 0.142986 0.0069877 0.0739749 -0.0556226 -0.0477756 -0.085374 -0.0796478 -0.00707577 0.035103 0.113728 0.0753018 -0.194715
1589 -0.29378 0.082597 0.0830834 -0.229414 -0.120584 0.0279117 0.0289496 -0.0997054 0.105842 0.205515 -0.150627 0.00764448 0.199487 -0.517448 0.0365751 -0.12054 -0.109269 -0.044586 -0.0242752 0.0919606 0.175508 0.128916 0.256948 -0.202242 0.127229 0.0623227 0.0138598 -0.141015 0.0900065 0.370318 -0.248669 -0.0251019 -0.110774 0.3399 0.148373 -0.0289654 -0.0415558 0.247078 -0.262514 -0.0380423 -0.00765308 -0.291384 0.103541 -0.202818 -0.0412753 0.0979766 -0.141087 0.195 -0.0388407 -0.240504 -0.088259 0.0728722 0.165205 0.0180482 0.0649886 -0.0721543 -0.0305898 -0.0833789 -0.0798162 -0.00281045 0.0297203 0.111943 0.0839893 -0.208009
3159 -0.28404 0.094268 0.0732147 -0.222501 -0.138326 0.0301622 0.0314593 -0.123881 0.126723 0.212381 -0.142836 0.00536653 0.205406 -0.52462 0.0332893 -0.119614 -0.123805 -0.0255818 -0.01983 0.0883174 0.169015 0.137257 0.251371 -0.199139 0.127537 0.0528524 0.0114254 -0.155321 0.100837 0.381165 -0.248043 -0.00969387 -0.120952 0.327203 0.154752 -0.0256293 -0.0249833 0.272345 -0.263497 -0.0417378 -0.0151966 -0.298382 0.0859794 -0.19966 -0.0356996 0.0877361 -0.141731 0.209362 -0.0160786 -0.248707 -0.104849 0.0711397 0.152599 0.0180868 0.0618145 -0.0612275 -0.0407792 -0.102562 -0.0830629 -0.0136087 0.0218915 0.111125 0.0607126 -0.186298
3329 -0.286158 0.0907598 0.0677676 -0.215125 -0.136745 0.0245048 0.013803 -0.114935 0.108925 0.213057 -0.161992 0.00783783 0.190787 -0.518973 0.0361803 -0.119056 -0.11313 -0.0374824 -0.0115628 0.0764128 0.180598 0.124993 0.267044 -0.217293 0.124848 0.0463637 0.00323232 -0.136105 0.109617 0.385526 -0.250798 -0.00490367 -0.129909 0.34227 0.163079 -0.0383497 -0.0493042 0.271959 -0.270267 -0.03494 -0.0241916 -0.286099 0.100697 -0.226435 -0.0447069 0.0965519 -0.137576 0.205348 -0.0154347 -0.255488 -0.0950458 0.0821521 0.158685 0.00775045 0.0663217 -0.0604607 -0.0366483 -0.083144 -0.0750885 -0.00295201 0.0258896 0.119515 0.0708968 -0.203262
2947 -0.28715 0.0795086 0.0698343 -0.213297 -0.125973 0.0244919 0.0320868 -0.118325 0.106257 0.213904 -0.1631 -0.01155 0.186613 -0.508365 0.0299257 -0.112076 -0.116576 -0.0352904 -0.0128169 0.0811411 0.171858 0.128314 0.265519 -0.204007 0.120358 0.0478367 -0.000367766 -0.144151 0.107829 0.372624 -0.257735 -0.0199516 -0.115031 0.327558 0.152887 -0.0400156 -0.0482744 0.253423 -0.278223 -0.0454916 -0.021699 -0.279101 0.0835931 -0.227753 -0.0318957 0.105329 -0.13618 0.21082 -0.00123559 -0.245279 -0.0943214 0.0624005 0.146096 0.00230171 0.0705789 -0.0612906 -0.032204 -0.0801569 -0.0715309 -0.00224315 0.0473901 0.110052 0.0700322 -0.199216
1028 -0.286307 0.0838374 0.0693009 -0.225994 -0.132056 0.0291247 0.0278851 -0.117898 0.104615 0.224887 -0.154314 -0.00230055 0.188098 -0.501902 0.0242656 -0.120878 -0.112621 -0.0340883 -0.021459 0.0776836 0.1773 0.12763 0.252872 -0.212916 0.119733 0.04467 -0.00852955 -0.147657 0.104979 0.378523 -0.241699 -0.00887653 -0.124597 0.325611 0.157259 -0.0382185 -0.0359544 0.255311 -0.270407 -0.0375105 -0.0173464 -0.285024 0.0984337 -0.213447 -0.0442513 0.0933533 -0.130102 0.206626 -0.0247632 -0.243615 -0.0893612 0.0830865 0.162239 0.00707211 0.0558724 -0.0613292 -0.0456473 -0.0955483 -0.0893255 -0.00775287 0.0414359 0.118746 0.0674709 -0.193818
15 -0.292272 0.082767 0.0653143 -0.215339 -0.125771 0.0373367 0.0313733 -0.11431 0.100544 0.212172 -0.162796 0.0100679 0.196616 -0.513232 0.0234118 -0.114279 -0.111409 -0.0252839 -0.0189158 0.0792228 0.170615 0.127589 0.250237 -0.209531 0.128389 0.0495538 0.0056385 -0.143338 0.113437 0.371992 -0.257412 -0.0173133 -0.127511 0.32472 0.150077 -0.0408864 -0.0399963 0.253629 -0.283261 -0.0345203 -0.0311327 -0.297273 0.0749621 -0.226751 -0.0372509 0.0987818 -0.130496 0.215944 -0.0119484 -0.249286 -0.0971799 0.0743532 0.15535 0.0160715 0.0681857 -0.065963 -0.0433623 -0.0900131 -0.0822795 -0.00883129 0.0341124 0.108971 0.0822429 -0.189573
3481 -0.288947 0.0717832 0.0591671 -0.221361 -0.12232 0.022325 0.0195275 -0.121213 0.0945766 0.225672 -0.164839 -0.0120095 0.182375 -0.509422 0.0263739 -0.111817 -0.108425 -0.0174736 -0.0092425 0.0676767 0.173972 0.118682 0.265164 -0.214371 0.126967 0.0479809 -0.0164057 -0.137059 0.121599 0.370242 -0.26165 -0.0396162 -0.143953 0.350516 0.148685 -0.052285 -0.0388336 0.237375 -0.30082 -0.048641 -0.0341073 -0.276036 0.100172 -0.251584 -0.0333216 0.100144 -0.128475 0.212886 0.0012551 -0.223461 -0.0821591 0.0795853 0.14761 0.000989827 0.0635058 -0.0525265 -0.0484364 -0.0730056 -0.0737227 -0.00173354 0.0563044 0.134303 0.0682989 -0.201544
1561 -0.280448 0.0838134 0.0661732 -0.222487 -0.134872 0.0225963 0.0305958 -0.106988 0.104542 0.215161 -0.156131 5.45058e-05 0.191149 -0.503967 0.0283798 -0.11528 -0.115222 -0.0321821 -0.0240093 0.078958 0.183186 0.12246 0.257088 -0.209055 0.132012 0.0384434 -0.00779874 -0.143478 0.12034 0.373936 -0.252981 -0.015641 -0.123188 0.326206 0.138261 -0.0323229 -0.03857 0.251512 -0.283015 -0.0380276 -0.0152499 -0.281255 0.0884939 -0.220365 -0.0360269 0.103474 -0.135904 0.206515 -0.0215504 -0.248675 -0.0838884 0.0657875 0.157878 0.0263378 0.0632852 -0.0561796 -0.0318265 -0.0920682 -0.0715558 -0.00821072 0.0465369 0.104879 0.0690315 -0.198242
3241 -0.286246 0.098583 0.0698472 -0.236757 -0.132583 0.0187754 0.0317631 -0.10488 0.109005 0.215318 -0.157118 0.013154 0.20389 -0.524179 0.0274387 -0.121193 -0.119719 -0.0297461 -0.0218693 0.0831369 0.178354 0.127643 0.261207 -0.214534 0.128703 0.0473526 -0.00468884 -0.139596 0.121615 0.379826 -0.235689 -0.00870652 -0.122479 0.331699 0.158332 -0.036085 -0.046817 0.251299 -0.263899 -0.039617 -0.0200447 -0.297327 0.0822599 -0.209749 -0.0418113 0.103233 -0.141788 0.205371 -0.0262069 -0.265644 -0.100979 0.0662045 0.153712 0.0147649 0.0656954 -0.0652306 -0.039664 -0.0877285 -0.082451 -0.0121294 0.0321851 0.113101 0.0741086 -0.193977
417 -0.283183 0.105848 0.0678535 -0.233472 -0.133888 0.0318908 0.0385098 -0.112724 0.107193 0.203151 -0.144724 0.00712628 0.207459 -0.525507 0.0332027 -0.125203 -0.116705 -0.0365553 -0.0269217 0.0917125 0.179871 0.13271 0.255397 -0.204825 0.121875 0.059031 0.00290941 -0.142634 0.111878 0.391442 -0.240918 -0.00204155 -0.122817 0.323763 0.172424 -0.0297226 -0.0231515 0.273392 -0.258022 -0.0405255 -0.0200042 -0.311685 0.100694 -0.202457 -0.0475245 0.0924432 -0.145849 0.201859 -0.0214295 -0.284629 -0.104256 0.0873473 0.157123 0.0211215 0.0738876 -0.0782696 -0.0296732 -0.0985815 -0.0871703 -0.00368846 0.0254448 0.109243 0.0740049 -0.195802
1058 -0.297905 0.0722117 0.0641879 -0.223229 -0.134075 0.0223948 0.0251757 -0.113814 0.0950474 0.220348 -0.164603 -0.00510594 0.188754 -0.511325 0.0277113 -0.122784 -0.109282 -0.0294148 -0.0268126 0.0771156 0.180769 0.122162 0.263855 -0.215841 0.119749 0.0641958 -0.0106666 -0.134883 0.105703 0.371466 -0.251541 -0.0291264 -0.12765 0.334415 0.141351 -0.0366154 -0.0311656 0.250428 -0.278768 -0.0370747 -0.0154278 -0.269804 0.0890742 -0.234912 -0.0374681 0.105925 -0.136976 0.211228 -0.0179752 -0.245643 -0.093819 0.0790535 0.149679 0.0148019 0.0568668 -0.0538266 -0.0365859 -0.0913013 -0.085435 -0.000412652 0.0457465 0.112802 0.0648491 -0.199156
292 -0.26207 0.100678 0.0662174 -0.221605 -0.127876 0.0272002 0.0392148 -0.111765 0.106455 0.19706 -0.138974 0.0162698 0.205984 -0.51755 0.0408955 -0.117626 -0.121722 -0.0354642 -0.0279416 0.099879 0.187811 0.129945 0.253459 -0.206424 0.118473 0.0407922 0.00939634 -0.140052 0.102704 0.372053 -0.234509 0.0104088 -0.114709 0.307246 0.147371 -0.0227929 -0.0216047 0.280187 -0.237757 -0.0347782 -0.0138608 -0.298554 0.0953154 -0.194152 -0.0459719 0.082132 -0.142736 0.194604 -0.0233104 -0.262867 -0.111464 0.0757817 0.148076 0.0244875 0.062779 -0.0638431 -0.0376223 -0.0966117 -0.0851567 -0.0074287 0.00952219 0.104984 0.0675119 -0.189379
1190 -0.270191 0.099754 0.0790883 -0.219213 -0.138785 0.0316221 0.0379379 -0.105085 0.108215 0.18948 -0.135927 0.0114284 0.202463 -0.519178 0.0425933 -0.112051 -0.114818 -0.043848 -0.0165132 0.0919333 0.189766 0.134752 0.245079 -0.213108 0.122219 0.0455211 0.0178166 -0.138094 0.110723 0.374589 -0.224833 -0.00206213 -0.113046 0.317889 0.169555 -0.0205953 -0.0193847 0.265996 -0.245456 -0.0310593 -0.0094961 -0.305326 0.0974532 -0.199515 -0.0607722 0.103337 -0.148737 0.197222 -0.0323072 -0.271344 -0.111401 0.0894279 0.159817 0.0204288 0.0592826 -0.0666717 -0.0330887 -0.0961605 -0.0758886 -0.00725749 0.00657989 0.106216 0.0736286 -0.184158
1321 -0.285437 0.0774306 0.0632856 -0.214299 -0.120345 0.0232044 0.0249026 -0.123212 0.0887475 0.221642 -0.160377 -0.0152769 0.174986 -0.499606 0.0295545 -0.114234 -0.0953967 -0.0329561 -0.0154231 0.0670587 0.169025 0.1235 0.259375 -0.213088 0.1193 0.0506636 0.00142465 -0.140567 0.112764 0.365039 -0.250587 -0.0215106 -0.119894 0.326795 0.144266 -0.0415701 -0.0473274 0.248215 -0.275817 -0.0450075 -0.0303468 -0.274932 0.09355 -0.230456 -0.0388662 0.101851 -0.132234 0.211258 -0.0151171 -0.230356 -0.0855938 0.0760992 0.143211 0.0119837 0.0640876 -0.0489888 -0.0479202 -0.0888483 -0.0845125 -0.0146988 0.0425569 0.123281 0.0732817 -0.210346
1325 -0.289591 0.0866282 0.0568723 -0.217129 -0.128684 0.0302154 0.0228476 -0.113658 0.106507 0.206198 -0.148819 -0.00180307 0.194789 -0.494123 0.0352054 -0.0965678 -0.104042 -0.0134317 -0.0161379 0.0620457 0.174216 0.120714 0.258717 -0.221056 0.110723 0.0474114 -0.00191857 -0.148485 0.112261 0.367187 -0.256535 -0.0181377 -0.126422 0.332426 0.154409 -0.0438599 -0.0378593 0.27173 -0.25649 -0.0512308 -0.0323689 -0.294527 0.0804134 -0.203686 -0.0417835 0.094066 -0.139861 0.192972 -0.0086403 -0.243733 -0.0915895 0.0818082 0.129807 -0.00970302 0.0623159 -0.0564957 -0.0586566 -0.0778695 -0.0809538 -0.00143071 0.0440204 0.124089 0.0639444 -0.216423
48 -0.280294 0.0858014 0.0715427 -0.223453 -0.12127 0.0298157 0.0167743 -0.107093 0.0973838 0.214951 -0.155717 -0.0069834 0.17352 -0.51389 0.0326168 -0.109105 -0.116331 -0.0319166 -0.0139575 0.0751052 0.171502 0.119836 0.263966 -0.204075 0.130819 0.0448034 -0.000201707 -0.146629 0.106458 0.384504 -0.256763 -0.0239772 -0.127784 0.324072 0.14423 -0.0282983 -0.0365203 0.250528 -0.28219 -0.0330499 -0.012092 -0.291817 0.0897364 -0.226907 -0.0302727 0.0991791 -0.130374 0.211123 -0.0173168 -0.239251 -0.102318 0.0829591 0.153344 0.0178139 0.0662156 -0.0560937 -0.0450894 -0.101803 -0.0880034 -0.00818874 0.0462462 0.108344 0.0658718 -0.215645
2867 -0.293247 0.0804193 0.0645901 -0.224229 -0.122739 0.0194958 0.00710246 -0.125398 0.0993964 0.225965 -0.161963 -0.0187987 0.179362 -0.504722 0.0353638 -0.108487 -0.0941424 -0.0287748 -0.0272938 0.0705019 0.174116 0.128445 0.254965 -0.219106 0.128722 0.0492741 -0.00553712 -0.142293 0.111646 0.362312 -0.255345 -0.0264788 -0.12263 0.336774 0.155252 -0.0548955 -0.0498821 0.252919 -0.295033 -0.0403063 -0.0256877 -0.27146 0.0894403 -0.238754 -0.0317891 0.105564 -0.130394 0.218574 -0.00544959 -0.226175 -0.0800825 0.0859317 0.140091 0.00977385 0.0687907 -0.0505165 -0.0552967 -0.080371 -0.0699675 -0.0122447 0.0501187 0.125026 0.0659302 -0.215819
187 -0.297592 0.0948229 0.0684095 -0.224344 -0.146122 0.0158854 0.0469099 -0.114511 0.121574 0.203802 -0.147887 0.00255918 0.196276 -0.523312 0.0193287 -0.144781 -0.120455 -0.0258988 -0.025916 0.101547 0.185237 0.124452 0.266194 -0.207076 0.127783 0.0538918 0.00430539 -0.140199 0.10848 0.38512 -0.24689 -0.00393767 -0.112079 0.329524 0.164336 -0.0214097 -0.0401327 0.270752 -0.261005 -0.0332671 -0.0207886 -0.291119 0.0750765 -0.215824 -0.047816 0.10416 -0.134495 0.216204 -0.0087965 -0.266566 -0.107799 0.0640683 0.171138 0.0157846 0.0796166 -0.0601645 -0.0309518 -0.0931977 -0.0756223 -0.00730614 0.0110288 0.112114 0.0693318 -0.181438
2364 -0.299519 0.0877641 0.0767246 -0.226908 -0.127991 0.0272053 0.0405051 -0.0971373 0.0983327 0.212298 -0.158331 0.00839363 0.197235 -0.507644 0.0370063 -0.11651 -0.124318 -0.0392402 -0.0156994 0.075662 0.18494 0.13563 0.260199 -0.204205 0.123745 0.0500268 0.0140432 -0.141545 0.107456 0.381596 -0.240732 -0.00963665 -0.103449 0.327681 0.164447 -0.035459 -0.0215611 0.253178 -0.263929 -0.0400809 -0.0174034 -0.299122 0.0764834 -0.202489 -0.0535967 0.117604 -0.134688 0.199761 -0.0281785 -0.262586 -0.101219 0.0787924 0.164153 0.0252634 0.0807224 -0.0557429 -0.0361998 -0.0813715 -0.0910701 -0.0202776 0.0148068 0.112331 0.0769664 -0.18807
2495 -0.294032 0.0978248 0.0723462 -0.210911 -0.129758 0.0225368 0.0333369 -0.121879 0.111497 0.211937 -0.137533 0.0124297 0.201875 -0.520545 0.0291041 -0.120754 -0.120857 -0.0286814 -0.0201407 0.10073 0.17768 0.128867 0.261146 -0.211125 0.111643 0.034312 0.00567528 -0.136243 0.1111 0.375348 -0.241613 0.00433104 -0.109747 0.320131 0.161367 -0.0340373 -0.0327367 0.261211 -0.257767 -0.0358816 -0.0140012 -0.299104 0.0997214 -0.210513 -0.0341109 0.115799 -0.141055 0.208821 -0.0192586 -0.258865 -0.111751 0.0738112 0.149567 0.0400327 0.058802 -0.0760672 -0.037074 -0.0796013 -0.0773487 -0.0087072 0.015688 0.113894 0.0747195 -0.193055
2627 -0.286427 0.0928746 0.068219 -0.21656 -0.124662 0.0288425 0.030741 -0.114841 0.101318 0.214126 -0.153374 -0.00543084 0.191523 -0.506145 0.0294798 -0.129994 -0.12168 -0.0254362 -0.0281384 0.0824764 0.178398 0.122418 0.260719 -0.200746 0.112611 0.0584429 0.000747379 -0.137259 0.121286 0.369922 -0.246207 -0.0180762 -0.116421 0.315961 0.164605 -0.0396025 -0.0409626 0.252207 -0.262569 -0.04073 -0.00911124 -0.295904 0.0914723 -0.212792 -0.0417934 0.0990985 -0.126864 0.21067 -0.00682516 -0.247361 -0.102061 0.0764241 0.168105 0.0189 0.07084 -0.0716203 -0.038968 -0.0843537 -0.0799795 -0.0101044 0.0361685 0.10891 0.0796761 -0.196483
3660 -0.28688 0.112061 0.0807464 -0.23026 -0.138539 0.020653 0.0325691 -0.0987365 0.107325 0.19635 -0.15907 -1.62002e-05 0.175619 -0.508654 0.0362325 -0.12517 -0.110997 -0.0390582 -0.0252682 0.0877255 0.175203 0.125414 0.26658 -0.217232 0.130541 0.058015 0.00322014 -0.126775 0.114014 0.370144 -0.24927 -0.026028 -0.113491 0.345429 0.148631 -0.0312274 -0.0430624 0.272131 -0.268218 -0.0526363 -0.0135454 -0.283943 0.0982999 -0.220574 -0.0477686 0.0910241 -0.129221 0.210483 -0.0138084 -0.245242 -0.0972786 0.0796124 0.147336 0.0128919 0.06661 -0.0535145 -0.0384352 -0.0851091 -0.0609516 -0.0111303 0.0266017 0.110924 0.0805906 -0.208548
2757 -0.281674 0.0874667 0.0706288 -0.225476 -0.128629 0.0211506 0.0226309 -0.110451 0.0999457 0.198557 -0.151053 -0.00119481 0.183086 -0.512373 0.0274469 -0.114381 -0.108664 -0.0236483 -0.0186516 0.0864855 0.178582 0.119966 0.271354 -0.217062 0.120133 0.039771 -0.00493979 -0.150953 0.109216 0.381732 -0.254749 -0.020655 -0.137949 0.333413 0.164579 -0.0420796 -0.0307483 0.264298 -0.268521 -0.0334733 -0.0231333 -0.29197 0.0934943 -0.217775 -0.0398295 0.106669 -0.134349 0.20261 -0.00897148 -0.243049 -0.0948151 0.082649 0.152395 0.00549286 0.0633707 -0.0678666 -0.0488413 -0.076143 -0.082396 -0.00646604 0.0248252 0.120713 0.0708941 -0.211039
3399 -0.292151 0.108093 0.0737793 -0.231031 -0.122823 0.0207027 0.0381688 -0.116946 0.102316 0.201026 -0.144942 0.0179446 0.20043 -0.523254 0.0311974 -0.122997 -0.116506 -0.0328963 -0.0163824 0.0912874 0.184626 0.122023 0.265755 -0.203662 0.123542 0.043282 0.0168795 -0.136358 0.115625 0.386174 -0.236251 0.00382343 -0.120252 0.320618 0.153819 -0.0296022 -0.022648 0.253453 -0.250749 -0.0438144 -0.0114441 -0.291157 0.0873204 -0.20432 -0.040473 0.100191 -0.127899 0.204775 -0.0217554 -0.267083 -0.0991814 0.0755133 0.167642 0.00643593 0.0687111 -0.07281 -0.0257707 -0.0860967 -0.0748859 -0.0151781 0.0210983 0.116371 0.072647 -0.180379
2253 -0.280884 0.0773055 0.0709942 -0.205026 -0.132465 0.0270787 0.0129246 -0.104217 0.104406 0.215071 -0.153024 -3.12167e-05 0.185323 -0.510546 0.0376011 -0.114331 -0.118168 -0.0256034 -0.0296936 0.078733 0.181638 0.123886 0.255496 -0.205861 0.139379 0.0547466 -0.0071206 -0.139731 0.111581 0.383084 -0.250455 -0.0137942 -0.122897 0.339979 0.150557 -0.0480831 -0.0462386 0.259677 -0.289965 -0.033952 -0.0105635 -0.290979 0.0936235 -0.225854 -0.0259402 0.0965471 -0.128568 0.215494 -0.0146318 -0.245921 -0.0864885 0.0806376 0.159696 0.0179816 0.074669 -0.051808 -0.0328132 -0.0871107 -0.0795623 -0.00832691 0.035677 0.117647 0.0744301 -0.198255
2891 -0.289839 0.0772495 0.0702462 -0.216217 -0.135376 0.0132605 0.0224434 -0.128676 0.0960083 0.221172 -0.155008 -0.0123683 0.168351 -0.500182 0.0310694 -0.109621 -0.11335 -0.0161074 -0.0185612 0.0653294 0.16902 0.116734 0.250451 -0.211 0.122518 0.0360079 -0.00107103 -0.148511 0.106618 0.376795 -0.2513 -0.0226419 -0.127559 0.33999 0.140361 -0.035701 -0.0451229 0.250035 -0.279966 -0.0535217 -0.0360108 -0.278459 0.0792502 -0.234038 -0.019861 0.0960376 -0.137913 0.20525 0.000570135 -0.230684 -0.088428 0.0798972 0.13391 0.014508 0.0692756 -0.0505195 -0.0454085 -0.0840897 -0.0617126 0.00805035 0.0475717 0.12966 0.0702676 -0.212925
3020 -0.287436 0.102103 0.0746665 -0.225317 -0.135575 0.0297954 0.0281824 -0.11398 0.0987744 0.214534 -0.156988 0.00504643 0.191546 -0.519057 0.0271776 -0.130552 -0.108184 -0.0338584 -0.0224194 0.092459 0.174917 0.123778 0.261607 -0.208113 0.122472 0.0457935 -0.000947962 -0.144418 0.115897 0.384502 -0.253576 -0.0106659 -0.112782 0.317413 0.147418 -0.0442968 -0.0374203 0.257531 -0.271041 -0.0370148 -0.0203216 -0.296748 0.0877024 -0.218227 -0.0373152 0.103594 -0.131613 0.20151 -0.00828171 -0.258691 -0.108748 0.0757314 0.158103 0.0189722 0.0684692 -0.0714009 -0.0456785 -0.0902474 -0.0836993 -0.0126537 0.0234054 0.112314 0.0771832 -0.197638
845 -0.296481 0.0876541 0.0758241 -0.216384 -0.12224 0.0229639 0.0206074 -0.119889 0.106298 0.214544 -0.158713 -0.00726803 0.171217 -0.506784 0.0309096 -0.131889 -0.101373 -0.0266102 -0.0289928 0.0740479 0.170741 0.133436 0.254205 -0.208727 0.13931 0.0515779 -0.0066644 -0.136132 0.126225 0.375292 -0.255514 -0.0275972 -0.122634 0.338696 0.12829 -0.0500615 -0.051932 0.244531 -0.295559 -0.0366066 -0.0305403 -0.274041 0.0759216 -0.25165 -0.022589 0.100238 -0.132 0.197816 0.0018483 -0.233831 -0.0787092 0.0652947 0.154697 0.00757073 0.0628516 -0.0557683 -0.0209828 -0.0818403 -0.0650276 -0.0008052 0.0479824 0.1148 0.0851641 -0.198485
1102 -0.285866 0.09637 0.0850837 -0.230233 -0.122188 0.0294062 0.0591104 -0.111309 0.124608 0.20109 -0.15581 -0.00158447 0.204352 -0.518573 0.0321439 -0.125581 -0.122722 -0.0404041 -0.0168732 0.109469 0.171194 0.125803 0.277818 -0.202709 0.116169 0.0469353 0.0051317 -0.134534 0.0964986 0.368671 -0.239763 0.00638045 -0.1207 0.31677 0.16558 -0.027603 -0.0350015 0.276896 -0.248286 -0.0300992 -0.0105379 -0.297341 0.0812271 -0.213154 -0.0478116 0.0938327 -0.132161 0.198107 -0.0204094 -0.267324 -0.113865 0.0887095 0.147751 0.022106 0.0645298 -0.0786416 -0.0343026 -0.101242 -0.0797322 -0.00877862 0.00630554 0.0965759 0.0752678 -0.194518
1106 -0.286411 0.0996808 0.0680479 -0.224048 -0.131567 0.0274061 0.0191922 -0.120034 0.0950749 0.218123 -0.15652 -0.0129191 0.201217 -0.525503 0.0327153 -0.115937 -0.126302 -0.028888 -0.0273616 0.0717509 0.1807 0.12857 0.272343 -0.218531 0.121597 0.0460831 0.0112383 -0.151392 0.12362 0.382055 -0.258034 -0.0234623 -0.12648 0.33283 0.159083 -0.0347703 -0.0435677 0.257441 -0.27702 -0.0481203 -0.0226724 -0.307158 0.0901905 -0.227718 -0.038694 0.0964837 -0.145695 0.214291 -0.00760747 -0.251944 -0.0939734 0.0909151 0.150487 0.0078404 0.0776323 -0.0713318 -0.0585694 -0.0767604 -0.0742017 -0.00114904 0.0260375 0.118565 0.0637977 -0.20485
723 -0.291244 0.0762164 0.0666471 -0.222289 -0.125155 0.0318078 0.0105526 -0.105433 0.101124 0.219224 -0.155557 -0.0112199 0.181515 -0.51329 0.0379779 -0.117341 -0.102415 -0.0265966 -0.011348 0.0797708 0.170926 0.13614 0.260027 -0.211894 0.126514 0.0495453 -0.00876857 -0.144318 0.116747 0.377332 -0.268072 -0.0234399 -0.121936 0.341403 0.148969 -0.0403174 -0.0355603 0.248236 -0.280388 -0.046484 -0.0204222 -0.28466 0.0963994 -0.234461 -0.0317715 0.101466 -0.137634 0.202247 -0.0268619 -0.248502 -0.0858156 0.0906301 0.14957 -0.00230438 0.0708573 -0.05433 -0.0474617 -0.084035 -0.082531 0.00522536 0.0468395 0.120186 0.069591 -0.211253
600 -0.284976 0.0724512 0.0637735 -0.208465 -0.12643 0.0240576 0.0213751 -0.116762 0.103042 0.221861 -0.15525 -0.00456439 0.191806 -0.493071 0.0286112 -0.122098 -0.101816 -0.0177088 -0.00567475 0.0836748 0.182623 0.133982 0.247989 -0.215454 0.108028 0.0474976 0.00432238 -0.134753 0.0998914 0.357963 -0.260399 -0.0159905 -0.114681 0.314851 0.148709 -0.0330557 -0.0259481 0.24637 -0.278619 -0.0409051 -0.0268144 -0.280511 0.0867798 -0.230489 -0.0324195 0.102468 -0.128376 0.194425 -0.0162195 -0.229779 -0.0791454 0.0839272 0.164307 0.0267382 0.0672199 -0.0567257 -0.0327191 -0.0905401 -0.0677524 0.000811531 0.0384386 0.125697 0.0709083 -0.207543
2137 -0.28909 0.0953388 0.0721043 -0.211167 -0.136223 0.032179 0.0320139 -0.112748 0.117992 0.210087 -0.150846 0.00689779 0.192221 -0.506741 0.0373406 -0.106998 -0.11274 -0.0273581 -0.0266672 0.0897076 0.175473 0.14037 0.261033 -0.218217 0.114973 0.0525645 0.0176563 -0.138078 0.11195 0.37462 -0.246456 0.000553881 -0.128771 0.326886 0.161161 -0.0309674 -0.0375819 0.26447 -0.267734 -0.0389946 -0.0264844 -0.285008 0.104874 -0.208382 -0.0408512 0.0862654 -0.141217 0.205464 -0.0123744 -0.244739 -0.0945836 0.0927419 0.143692 0.0232504 0.0643351 -0.0559118 -0.029163 -0.101192 -0.0750132 0.0058337 0.0310902 0.12159 0.0791855 -0.189535
1631 -0.289542 0.0770468 0.0676648 -0.224687 -0.129965 0.0124248 0.0340801 -0.120797 0.10825 0.214437 -0.148647 -0.00372683 0.18871 -0.518484 0.0247948 -0.114801 -0.11207 -0.0202446 -0.0152775 0.0703604 0.169205 0.117929 0.26093 -0.209 0.126833 0.0493762 -0.00140264 -0.143034 0.107169 0.37038 -0.256574 -0.0202978 -0.115002 0.339188 0.165202 -0.0297909 -0.0248742 0.258203 -0.285415 -0.0370828 -0.0264496 -0.27957 0.0849795 -0.227928 -0.0229235 0.102901 -0.138269 0.208955 -0.0238545 -0.249689 -0.0876074 0.0641172 0.146465 0.0123145 0.0622843 -0.0531888 -0.0427143 -0.0802068 -0.0767101 -0.00792987 0.0499748 0.118871 0.0644985 -0.195385
867 -0.285919 0.0577922 0.0567779 -0.223456 -0.119355 0.0234998 0.0122837 -0.133772 0.103122 0.229784 -0.14997 -0.0149544 0.176956 -0.505099 0.0219003 -0.105298 -0.113884 -0.0183257 -0.0103309 0.0617459 0.171323 0.118706 0.264983 -0.211289 0.129717 0.0546711 -0.00823365 -0.15233 0.111419 0.38216 -0.251009 -0.0173196 -0.131894 0.348011 0.145971 -0.0420531 -0.0358782 0.258348 -0.293024 -0.0415123 -0.0185929 -0.275238 0.0998153 -0.230927 -0.022606 0.096679 -0.130919 0.208578 -0.00377394 -0.237025 -0.0786969 0.0689023 0.144044 0.000311558 0.0547959 -0.0489914 -0.0553774 -0.0843025 -0.082394 -0.00178288 0.0649717 0.128746 0.0566938 -0.208719
3560 -0.295664 0.0727623 0.0656543 -0.215278 -0.12479 0.02568 0.0155741 -0.133272 0.0895927 0.228757 -0.171831 -0.0222465 0.170919 -0.500815 0.0284501 -0.120726 -0.109375 -0.0269671 -0.0261088 0.0610356 0.17889 0.119308 0.253541 -0.21675 0.13521 0.0501044 -0.00905853 -0.137158 0.126198 0.369905 -0.27282 -0.0303227 -0.129133 0.346213 0.154831 -0.0388544 -0.0508628 0.234874 -0.29567 -0.0542084 -0.0413836 -0.264814 0.0872882 -0.255423 -0.0222677 0.117249 -0.129168 0.219017 -0.00460248 -0.224564 -0.0679749 0.0721659 0.145975 0.0109917 0.0623238 -0.0449002 -0.0452061 -0.0687949 -0.0655697 0.00911605 0.0532695 0.115631 0.0701396 -0.20598
233 -0.305001 0.0735369 0.0753302 -0.230389 -0.135823 0.025359 0.0254167 -0.131026 0.0968145 0.233105 -0.173223 -0.00372034 0.185794 -0.511573 0.0312973 -0.129908 -0.107063 -0.0258238 -0.0260893 0.0896657 0.169326 0.13207 0.268685 -0.219386 0.127302 0.0414405 -0.00293345 -0.145349 0.106073 0.369143 -0.268575 -0.0263529 -0.126883 0.341594 0.163999 -0.0535566 -0.0322999 0.244049 -0.29672 -0.0458796 -0.0337667 -0.27719 0.0785324 -0.238226 -0.0329373 0.113208 -0.12427 0.224498 -0.0059223 -0.250476 -0.0872274 0.0847889 0.161571 -0.000532961 0.0670559 -0.0618265 -0.0500321 -0.0776229 -0.0729963 -0.00136484 0.0424523 0.109918 0.0794833 -0.199311
3564 -0.295393 0.0954437 0.068605 -0.22459 -0.134055 0.0254052 0.0297401 -0.107608 0.109134 0.22082 -0.163716 -0.00601221 0.197407 -0.502315 0.0198102 -0.124661 -0.101058 -0.0398935 -0.0294822 0.0804904 0.195823 0.133388 0.256057 -0.200533 0.114873 0.0479581 -0.00981307 -0.130592 0.112666 0.365805 -0.257539 -0.0073013 -0.115376 0.337229 0.139185 -0.0420318 -0.0406196 0.263742 -0.27443 -0.0423107 -0.00563905 -0.290265 0.0912953 -0.215694 -0.0366186 0.106306 -0.128473 0.197664 -0.0211535 -0.257415 -0.0854688 0.0679751 0.171848 0.0135421 0.0590449 -0.0513834 -0.0257424 -0.0949193 -0.0839019 -0.0018992 0.0369726 0.109605 0.0781929 -0.200792
2285 -0.291222 0.0885594 0.0545623 -0.208097 -0.123708 0.0228955 0.027086 -0.118749 0.108862 0.20983 -0.181885 -0.0020772 0.18985 -0.510048 0.038994 -0.114081 -0.103768 -0.0393929 -0.0265206 0.0762243 0.169952 0.130204 0.244793 -0.204328 0.134158 0.0432141 -0.0167275 -0.134523 0.101485 0.375988 -0.261307 -0.0222264 -0.129094 0.342869 0.143328 -0.0323783 -0.0452871 0.250454 -0.283101 -0.0563315 -0.0237313 -0.279116 0.0879072 -0.240377 -0.0185035 0.113186 -0.13187 0.217139 0.00316933 -0.230044 -0.0794767 0.06425 0.144247 0.0301346 0.0653584 -0.0582981 -0.0124694 -0.0872093 -0.0596886 -0.0105751 0.0440711 0.119102 0.079054 -0.189424
878 -0.295875 0.0768354 0.0694919 -0.221891 -0.12901 0.0289412 0.0145234 -0.117559 0.0930295 0.227999 -0.165615 -0.00672109 0.181638 -0.500501 0.0167449 -0.105091 -0.111567 -0.026853 -0.0127615 0.0696246 0.173322 0.127666 0.254604 -0.218135 0.127184 0.0434987 -0.00933376 -0.146617 0.108186 0.370597 -0.268413 -0.029643 -0.121132 0.340527 0.142023 -0.0439207 -0.0470555 0.236168 -0.281699 -0.0376394 -0.0178007 -0.285473 0.0795648 -0.240705 -0.0262219 0.104407 -0.122537 0.216514 -0.00673067 -0.226987 -0.0853519 0.0662188 0.142824 0.0129844 0.0630715 -0.0468632 -0.0475415 -0.0884405 -0.0788405 -0.00128326 0.0503066 0.12091 0.0809718 -0.205981
2927 -0.293873 0.0935511 0.0684414 -0.221002 -0.131868 0.0190289 0.0233488 -0.109603 0.100044 0.219201 -0.150753 0.00119366 0.17503 -0.509167 0.0301909 -0.113228 -0.10212 -0.0369941 -0.0256501 0.0867047 0.173217 0.129605 0.267123 -0.209822 0.131668 0.0684292 -0.00942553 -0.127005 0.112083 0.373628 -0.263279 -0.0195954 -0.115931 0.342336 0.146874 -0.0471241 -0.0367659 0.250107 -0.28938 -0.0551656 -0.0258624 -0.280546 0.089355 -0.236379 -0.0447094 0.0998682 -0.13129 0.211601 -0.0188307 -0.243057 -0.0831347 0.0907486 0.154117 0.0082947 0.0608129 -0.0589241 -0.0326484 -0.0861597 -0.0581322 0.00693936 0.0333545 0.1205 0.0859153 -0.207154
1137 -0.278296 0.114511 0.0718961 -0.220011 -0.127383 0.0340244 0.0437917 -0.100866 0.106345 0.208257 -0.152609 0.0142047 0.204106 -0.52942 0.0392065 -0.129645 -0.12076 -0.0329435 -0.025416 0.0845893 0.177565 0.132902 0.26253 -0.210029 0.131903 0.0555148 0.00827797 -0.138866 0.118604 0.386278 -0.243967 0.000338668 -0.100653 0.331908 0.15568 -0.0332287 -0.0300683 0.270976 -0.254236 -0.0485262 -0.0149136 -0.288979 0.0819129 -0.220407 -0.0423098 0.0985234 -0.140188 0.192354 -0.0250063 -0.274564 -0.100094 0.074211 0.169317 0.0177279 0.0665706 -0.0712497 -0.0288449 -0.0958126 -0.072422 -0.00840871 0.00979668 0.112348 0.0732548 -0.176375
499 -0.277671 0.0830195 0.0809724 -0.222905 -0.136083 0.0368637 0.0363818 -0.111365 0.10874 0.230337 -0.150297 -0.00993818 0.202565 -0.516319 0.0317758 -0.123036 -0.118701 -0.0390659 -0.0229823 0.106262 0.193764 0.124904 0.2601 -0.219428 0.130918 0.0590394 0.00614416 -0.155051 0.116217 0.377624 -0.248315 -0.00326282 -0.11264 0.326126 0.166025 -0.0484996 -0.0275586 0.256714 -0.272376 -0.0499459 -0.0207477 -0.297672 0.0898364 -0.222304 -0.0397376 0.0916486 -0.156925 0.194405 -0.0284088 -0.253501 -0.11608 0.0772625 0.156276 0.0117713 0.0711545 -0.0730633 -0.037823 -0.0894313 -0.0846121 -0.0231796 0.0152899 0.108706 0.0752462 -0.191132
1660 -0.296631 0.0891371 0.062596 -0.221871 -0.122106 0.0313125 0.0248658 -0.107064 0.101832 0.209663 -0.152573 0.00935452 0.185335 -0.521548 0.0284435 -0.113342 -0.121755 -0.0287274 -0.0103758 0.100101 0.169423 0.133765 0.25939 -0.221329 0.115219 0.0485527 0.00149173 -0.146179 0.100017 0.37518 -0.246824 -0.0208505 -0.123184 0.340718 0.164341 -0.0335539 -0.0290179 0.27357 -0.260295 -0.0476615 -0.0279144 -0.300825 0.0940356 -0.215708 -0.0449839 0.0950742 -0.13809 0.214015 -0.00338265 -0.245489 -0.102539 0.0825266 0.146585 0.00796354 0.0631414 -0.0622101 -0.0571156 -0.0838443 -0.0749781 -0.00391037 0.0329339 0.113169 0.0701989 -0.190419
12 -0.328705 0.0879741 0.100809 -0.238456 -0.135847 0.0448147 0.0268028 -0.0850744 0.109006 0.212237 -0.155114 0.0112605 0.19472 -0.531077 0.0344931 -0.115805 -0.132145 -0.0271254 -0.0418964 0.0720877 0.189456 0.119835 0.245916 -0.193079 0.130157 0.0640337 0.000886954 -0.169117 0.111156 0.377377 -0.235315 -0.00274464 -0.10504 0.33495 0.195108 -0.0100435 0.0136157 0.256218 -0.254748 -0.0489864 -0.00257885 -0.316293 0.104085 -0.195579 -0.0594716 0.1235 -0.145556 0.227362 -0.0501787 -0.270011 -0.0820985 0.0870553 0.163202 0.0267709 0.0864145 -0.0422771 -0.0382084 -0.0888031 -0.100555 -0.00831066 0.0153949 0.129046 0.0809174 -0.230172
2101 -0.295287 0.0650304 0.0577427 -0.220328 -0.131202 0.0231787 0.00220441 -0.115211 0.095261 0.23813 -0.169058 -0.0285705 0.158299 -0.494624 0.0232159 -0.104172 -0.101974 -0.0225169 -0.0117411 0.0506146 0.165742 0.120733 0.253778 -0.211499 0.130554 0.0517847 -0.0145432 -0.149028 0.114443 0.377425 -0.271322 -0.0410068 -0.130736 0.349381 0.144103 -0.0504578 -0.0576591 0.233996 -0.297162 -0.040878 -0.0198661 -0.280518 0.0949889 -0.258448 -0.0103709 0.0978238 -0.122199 0.21306 -0.00481243 -0.219655 -0.0762771 0.0775758 0.142893 -0.00399335 0.0597469 -0.0488798 -0.0460528 -0.0807 -0.0701462 4.7706e-06 0.0542737 0.13244 0.0802449 -0.218056
13 -0.294123 0.0829912 0.0722336 -0.224855 -0.130485 0.0215593 0.0295594 -0.104951 0.110401 0.209019 -0.132521 -0.00225349 0.186343 -0.506564 0.0355795 -0.130533 -0.113977 -0.0353168 -0.0250862 0.0690729 0.1845 0.125368 0.25598 -0.21775 0.134842 0.0575568 -0.000250164 -0.134208 0.112041 0.372692 -0.253263 -0.00072356 -0.11003 0.334814 0.148781 -0.0404397 -0.0329849 0.25626 -0.263956 -0.0371372 -0.0150886 -0.28049 0.0887417 -0.209167 -0.0370655 0.122017 -0.128908 0.203623 -0.0104273 -0.270406 -0.0973228 0.0634903 0.148988 0.0156349 0.0630631 -0.0553246 -0.0288785 -0.0882074 -0.0857956 -0.0149944 0.0279018 0.113389 0.0602226 -0.198006
3587 -0.274882 0.0959035 0.0693756 -0.214302 -0.138614 0.0295974 0.0303172 -0.103666 0.0974428 0.205668 -0.142787 0.0103441 0.194179 -0.507553 0.0267545 -0.119798 -0.121738 -0.0281852 -0.0176011 0.0921384 0.181025 0.136927 0.243786 -0.211047 0.11994 0.0524126 0.0179491 -0.146949 0.114566 0.379622 -0.241061 -0.000381496 -0.11352 0.325751 0.150172 -0.0251798 -0.0341076 0.261828 -0.252047 -0.0396678 -0.0181044 -0.293651 0.0953018 -0.195798 -0.0381825 0.101014 -0.136734 0.196073 -0.0231475 -0.254935 -0.0981664 0.0753202 0.161845 0.019715 0.0656126 -0.0676814 -0.0321936 -0.0836248 -0.0764401 -0.00630233 0.01539 0.113934 0.0630459 -0.184834
2828 -0.276975 0.0949128 0.0698749 -0.230829 -0.12977 0.0209657 0.0357023 -0.100908 0.117414 0.199139 -0.145263 0.0126556 0.196791 -0.513943 0.0248429 -0.124728 -0.116818 -0.0270257 -0.026497 0.0844943 0.18659 0.121433 0.261388 -0.207467 0.129334 0.0550443 0.0117737 -0.141607 0.115556 0.378596 -0.251765 0.00128353 -0.126917 0.317236 0.159933 -0.0317641 -0.0307062 0.259013 -0.265797 -0.037115 -0.0139225 -0.286924 0.0959728 -0.204534 -0.0429174 0.108878 -0.129365 0.204843 -0.013742 -0.263351 -0.113707 0.0718649 0.144857 0.0243556 0.0621147 -0.0661188 -0.0266315 -0.0871946 -0.083783 -0.0166975 0.0160495 0.109478 0.0815055 -0.191329
14 -0.278203 0.0963832 0.0733281 -0.224948 -0.140411 0.0333793 0.0276717 -0.103485 0.0962168 0.210256 -0.142432 -0.00380507 0.193913 -0.518286 0.0281061 -0.113094 -0.125407 -0.0249799 -0.0109006 0.0798174 0.182362 0.132988 0.25357 -0.208653 0.120639 0.0528646 0.00458709 -0.140708 0.114665 0.377311 -0.247586 -0.0059163 -0.122073 0.313579 0.149263 -0.0280104 -0.036425 0.268156 -0.264627 -0.0414833 -0.0113492 -0.305289 0.0963904 -0.199906 -0.0498912 0.0941401 -0.137451 0.191348 -0.0134188 -0.257969 -0.0938657 0.0771913 0.15615 0.00169038 0.0647713 -0.0683475 -0.0424502 -0.0867118 -0.0789866 -0.0138051 0.0259539 0.118706 0.0703077 -0.19506
16 -0.28419 0.103075 0.0667781 -0.217892 -0.12964 0.0337691 0.0432489 -0.111672 0.101217 0.202666 -0.144552 0.0135669 0.187002 -0.514489 0.0285084 -0.120202 -0.120209 -0.0407036 -0.0266886 0.0887671 0.188609 0.125729 0.247238 -0.210223 0.132375 0.0372546 0.001564 -0.133218 0.11361 0.380403 -0.238196 -0.00288679 -0.109788 0.312846 0.158261 -0.0335842 -0.0301791 0.267142 -0.249941 -0.0355641 -0.00823494 -0.296533 0.0932327 -0.196902 -0.0358966 0.100893 -0.128831 0.193219 -0.0141945 -0.27705 -0.10949 0.0655002 0.158149 0.0279169 0.0657503 -0.0655838 -0.021342 -0.0891559 -0.0914237 -0.0118457 0.0169736 0.101367 0.0684124 -0.190524
19 -0.280346 0.0999369 0.0720083 -0.230498 -0.132931 0.0253344 0.0307025 -0.108952 0.111359 0.215955 -0.15347 0.0147138 0.195155 -0.517975 0.0407505 -0.127542 -0.115204 -0.0363646 -0.0284946 0.0753122 0.192893 0.137656 0.255026 -0.203619 0.127314 0.0432962 0.0135841 -0.131481 0.119739 0.386526 -0.25248 0.00388514 -0.110613 0.323021 0.147862 -0.0284825 -0.0288219 0.258052 -0.257257 -0.0329997 -0.0164709 -0.287138 0.0920186 -0.209301 -0.0468478 0.110607 -0.128685 0.205493 -0.0310922 -0.278035 -0.104413 0.069212 0.175715 0.0281003 0.0686273 -0.0606522 -0.00922188 -0.0932756 -0.0899865 -0.00838606 0.0339906 0.10789 0.0623274 -0.189048
20 -0.294459 0.0792338 0.0616632 -0.226182 -0.136709 0.0345461 0.0205579 -0.117882 0.108719 0.228866 -0.146062 -0.00360383 0.184412 -0.501826 0.0362007 -0.118798 -0.100633 -0.0369244 -0.00904826 0.0670259 0.187691 0.13405 0.260692 -0.199058 0.129207 0.0510712 -0.00842855 -0.14897 0.107027 0.380684 -0.263185 -0.0154278 -0.118315 0.338911 0.151266 -0.0392779 -0.0354548 0.251747 -0.294201 -0.0338973 -0.0155343 -0.29592 0.0861963 -0.226499 -0.0316272 0.101152 -0.128424 0.215627 -0.0248137 -0.252365 -0.0837673 0.0699509 0.160907 0.0175513 0.0573398 -0.0507111 -0.0280701 -0.0858383 -0.0759492 -0.015769 0.0420334 0.117164 0.0570936 -0.206251
2590 -0.293224 0.0754045 0.0591224 -0.227059 -0.140222 0.0265926 0.0253924 -0.10779 0.100545 0.227215 -0.142836 -0.00562393 0.172751 -0.506689 0.0319184 -0.115704 -0.112997 -0.0220018 -0.0120572 0.071038 0.171235 0.116575 0.257986 -0.201958 0.131446 0.0474836 -0.00837014 -0.149791 0.119288 0.364321 -0.251498 -0.0100843 -0.117704 0.327939 0.156718 -0.0343622 -0.0381768 0.252238 -0.281102 -0.045854 -0.014339 -0.287722 0.0856255 -0.216949 -0.0289469 0.101131 -0.131652 0.208519 -0.0106125 -0.245677 -0.0917856 0.0812631 0.14546 0.0201002 0.0709544 -0.0523562 -0.0355158 -0.0774939 -0.0828422 -0.000525127 0.0411663 0.12601 0.06632 -0.205914
1440 -0.269382 0.10598 0.0733224 -0.217666 -0.126434 0.0229395 0.0315975 -0.105301 0.10877 0.210136 -0.150631 0.00216106 0.198063 -0.507985 0.0335065 -0.123172 -0.11025 -0.042607 -0.0200095 0.0960729 0.176177 0.126631 0.25498 -0.212128 0.11041 0.0462025 0.00209629 -0.13051 0.11621 0.376002 -0.227678 -0.00446063 -0.101061 0.3092 0.161753 -0.0376258 -0.0193717 0.250623 -0.254441 -0.0321123 -0.0199069 -0.288555 0.0925892 -0.199759 -0.0523634 0.100828 -0.133333 0.19467 -0.0214938 -0.252505 -0.107327 0.0778018 0.153131 0.0189869 0.0552884 -0.0635599 -0.0266767 -0.100186 -0.0791128 -0.0171879 0.0175019 0.106261 0.0751951 -0.173756
3236 -0.279727 0.0961623 0.0710028 -0.221249 -0.119025 0.0215324 0.0305853 -0.111074 0.109237 0.20628 -0.138426 0.0181769 0.193477 -0.515386 0.0344163 -0.12253 -0.121115 -0.0308633 -0.0244541 0.0896427 0.189183 0.126385 0.257852 -0.212325 0.123549 0.0415622 0.00620493 -0.139737 0.113899 0.368676 -0.233746 0.00294357 -0.11973 0.331792 0.167039 -0.0283623 -0.044851 0.264587 -0.267225 -0.0318475 -0.0103225 -0.279987 0.091367 -0.205667 -0.0514005 0.104962 -0.127803 0.197154 -0.022737 -0.264003 -0.103782 0.0823898 0.159202 0.0130118 0.0558323 -0.0551964 -0.0277502 -0.0961217 -0.0832696 -0.0127034 0.0284952 0.113552 0.061109 -0.185184
52 -0.274279 0.0876756 0.0757289 -0.218811 -0.120267 0.0305381 0.028947 -0.100918 0.10804 0.206298 -0.149114 0.00789191 0.205947 -0.531379 0.0303672 -0.136115 -0.110671 -0.03656 -0.0290146 0.0908961 0.188377 0.12747 0.257849 -0.196784 0.130127 0.0385805 0.00481628 -0.142137 0.109049 0.376867 -0.250092 0.00421613 -0.108735 0.31963 0.164658 -0.0330648 -0.0370637 0.256018 -0.27014 -0.0340359 -0.00813388 -0.282512 0.0939428 -0.210599 -0.0373162 0.11123 -0.138308 0.206781 -0.0255587 -0.26446 -0.105169 0.0794752 0.161858 0.0253688 0.0688157 -0.0576279 -0.0127762 -0.0880666 -0.0795672 -0.00366949 0.0268451 0.110812 0.0855322 -0.195425
1119 -0.29586 0.0934768 0.0736486 -0.227855 -0.129139 0.00721974 0.0304736 -0.108113 0.112806 0.214499 -0.145966 0.00917403 0.184721 -0.519218 0.0255857 -0.13963 -0.112586 -0.0383455 -0.0171131 0.0899403 0.188427 0.131306 0.256528 -0.210183 0.12169 0.0556317 -0.0061024 -0.132941 0.1056 0.380413 -0.25025 -0.00855872 -0.105755 0.340139 0.159937 -0.0429609 -0.0161571 0.26049 -0.26474 -0.0233663 -0.00655886 -0.282374 0.0810882 -0.215505 -0.053669 0.118709 -0.131366 0.211669 -0.0314937 -0.27822 -0.106269 0.0563831 0.167193 0.0278811 0.0554036 -0.046486 -0.0107086 -0.0983664 -0.0864655 -0.0293469 0.0320927 0.109489 0.0610984 -0.196327
1082 -0.284798 0.100391 0.0729351 -0.232278 -0.132341 0.0191669 0.039307 -0.116406 0.113228 0.206459 -0.150653 0.0167078 0.192108 -0.513465 0.0273587 -0.126888 -0.118913 -0.0334524 -0.0163719 0.0815538 0.176058 0.126865 0.248559 -0.21436 0.12227 0.0475786 -0.000109334 -0.13665 0.105858 0.379573 -0.243882 0.00294552 -0.117502 0.335582 0.162255 -0.0304515 -0.0370066 0.270081 -0.253334 -0.0449651 -0.0190647 -0.29984 0.0798837 -0.215141 -0.0494078 0.104089 -0.133243 0.199987 -0.0182177 -0.262341 -0.1042 0.0756654 0.158551 0.0212362 0.067919 -0.0556861 -0.0402429 -0.0968726 -0.0902266 -0.00835269 0.0231088 0.1135 0.0631987 -0.194457
1085 -0.294067 0.0981663 0.0604261 -0.215313 -0.126508 0.0222765 0.0290534 -0.115004 0.106166 0.210805 -0.142731 0.00822182 0.193353 -0.511312 0.0348889 -0.120902 -0.120358 -0.0256638 -0.0117164 0.0815613 0.180145 0.133353 0.259329 -0.20261 0.128857 0.0439799 -0.00143555 -0.134375 0.105558 0.376075 -0.239555 -0.0173494 -0.123063 0.31553 0.159915 -0.0364324 -0.0296271 0.259602 -0.267454 -0.0363681 -0.0155517 -0.286524 0.0926299 -0.221009 -0.0449392 0.101246 -0.146322 0.207787 0.000599562 -0.257423 -0.107002 0.0781692 0.149058 0.0104073 0.0619909 -0.0571526 -0.0459019 -0.0763739 -0.0824409 -0.0195993 0.0235883 0.108368 0.074916 -0.192658
1343 -0.286863 0.0635667 0.0608303 -0.220327 -0.133588 0.0206122 0.00527125 -0.122432 0.084394 0.238561 -0.170864 -0.020242 0.164989 -0.497987 0.0222996 -0.112202 -0.0997366 -0.0343979 -0.0196619 0.0582674 0.172065 0.122936 0.247397 -0.212102 0.128679 0.0475645 -0.0131488 -0.137539 0.0992114 0.367544 -0.269213 -0.0287285 -0.130831 0.343309 0.131098 -0.0475068 -0.0537994 0.234402 -0.306825 -0.045784 -0.0297078 -0.269927 0.100518 -0.255452 -0.0126433 0.11596 -0.12948 0.209683 -0.0192524 -0.220328 -0.0712326 0.0796867 0.148355 0.0155406 0.0532301 -0.0463573 -0.0286519 -0.0828639 -0.0734847 -0.00455577 0.0635417 0.125484 0.0628088 -0.20223
3392 -0.292911 0.0648475 0.0569988 -0.208329 -0.127219 0.0303668 0.0192801 -0.108359 0.101794 0.217206 -0.154485 -0.0143959 0.178307 -0.49037 0.0360176 -0.100003 -0.11067 -0.0186824 -0.00623917 0.0562757 0.181548 0.12012 0.261116 -0.200948 0.127235 0.0331582 0.00468687 -0.151561 0.115091 0.380323 -0.263207 -0.0231687 -0.143486 0.332826 0.141608 -0.0453576 -0.0342004 0.254563 -0.28022 -0.0535347 -0.0353618 -0.277083 0.0903875 -0.238959 -0.0278285 0.102998 -0.120344 0.198143 0.000619914 -0.230499 -0.0812714 0.0769624 0.150646 -0.00598862 0.0690956 -0.0471066 -0.0701799 -0.0851758 -0.0808305 0.00237974 0.0512878 0.123312 0.0716297 -0.208279
846 -0.279505 0.0914613 0.0670245 -0.218766 -0.135681 0.0265824 0.0187344 -0.111349 0.0979817 0.217192 -0.151285 -0.00544342 0.189691 -0.506088 0.0237903 -0.110611 -0.103108 -0.0218107 -0.0234639 0.0794435 0.184714 0.130209 0.246701 -0.20161 0.130561 0.0436528 0.00544828 -0.145315 0.113223 0.36845 -0.249554 -0.0124322 -0.118577 0.325096 0.155987 -0.0500991 -0.0390615 0.251662 -0.271083 -0.0367205 -0.0186674 -0.277121 0.0987745 -0.215572 -0.0477612 0.100359 -0.138179 0.201709 -0.00432512 -0.252319 -0.0883822 0.0790374 0.156366 0.0198581 0.0613546 -0.0517256 -0.0428129 -0.0929358 -0.067694 -0.00244453 0.0335693 0.109688 0.0584342 -0.205687
1486 -0.284429 0.0961497 0.0680132 -0.230732 -0.128875 0.0214427 0.0509856 -0.102279 0.104292 0.21337 -0.138303 0.0149514 0.190846 -0.518641 0.0418042 -0.133959 -0.115182 -0.0320511 -0.016446 0.0943542 0.178758 0.129698 0.261238 -0.203394 0.128884 0.0416969 0.00303443 -0.127766 0.117511 0.375512 -0.238868 -0.00765435 -0.102677 0.333921 0.161115 -0.0290481 -0.0278642 0.277295 -0.258136 -0.0381548 -0.0116564 -0.282795 0.0798947 -0.207061 -0.0450488 0.103459 -0.136446 0.200784 -0.0198848 -0.272572 -0.102338 0.0786539 0.171368 0.020682 0.0556031 -0.0606961 -0.0288141 -0.0867577 -0.0905012 -0.0226606 0.0266687 0.111309 0.0627832 -0.19391
1234 -0.272508 0.100555 0.0729502 -0.226756 -0.139876 0.0430072 0.0373283 -0.103398 0.110055 0.205248 -0.14389 0.00425678 0.196001 -0.508737 0.0376293 -0.122691 -0.113674 -0.0304089 -0.0278299 0.0974746 0.188119 0.133475 0.252236 -0.207364 0.115725 0.0453999 0.0101799 -0.130718 0.10214 0.383063 -0.2429 -0.0124585 -0.117083 0.322435 0.15051 -0.0282312 -0.0332482 0.274423 -0.263551 -0.0519554 -0.0125849 -0.298039 0.0949033 -0.214059 -0.0332347 0.0938397 -0.133999 0.207622 -0.0200653 -0.258319 -0.0979572 0.0736356 0.160461 0.0286953 0.0518827 -0.0557949 -0.03164 -0.0886949 -0.076475 0.000765609 0.0293815 0.111163 0.0587812 -0.19661
3795 -0.281288 0.0920444 0.0632132 -0.212626 -0.145961 0.0304118 0.0191536 -0.0974813 0.0985263 0.211539 -0.143632 0.0106603 0.202547 -0.506529 0.0298081 -0.112291 -0.122133 -0.0405516 -0.00905879 0.0894529 0.192405 0.133427 0.253801 -0.208758 0.121004 0.052199 -0.00198789 -0.13529 0.106296 0.36539 -0.249256 -0.010183 -0.111579 0.319187 0.146227 -0.0246149 -0.0341258 0.25 -0.25869 -0.0389569 -0.0128941 -0.291766 0.0910145 -0.205697 -0.050727 0.0955213 -0.128515 0.193764 -0.0266541 -0.262096 -0.0840963 0.0645585 0.160108 0.0254992 0.0617089 -0.0663119 -0.0213762 -0.0870372 -0.0742567 -0.0190993 0.0406507 0.0983248 0.0682623 -0.17963
2448 -0.290399 0.0890609 0.0694655 -0.222971 -0.136154 0.0205497 0.0197232 -0.109601 0.102596 0.224718 -0.142539 0.00556302 0.195797 -0.521118 0.0363628 -0.127101 -0.118273 -0.0315664 -0.0247641 0.0833507 0.179827 0.129481 0.252427 -0.223004 0.129893 0.0580298 0.00204775 -0.154186 0.107584 0.380055 -0.247626 -0.0150882 -0.132066 0.335998 0.163204 -0.0429171 -0.0353138 0.273627 -0.278894 -0.041603 -0.0167122 -0.301611 0.0968959 -0.220257 -0.0483573 0.106723 -0.128109 0.213061 -0.0306346 -0.24871 -0.0906335 0.0808516 0.147024 0.0171823 0.0598387 -0.0504654 -0.0432684 -0.0926782 -0.0790912 -0.00781777 0.0394956 0.110398 0.0711276 -0.195408
